#~,0.21791491384513725,-0.13403408473634906,-0.048943748442813455,-0.30106180867214355,0.4041505535890801,-0.2196602961560449,-0.4456171358400027,-0.20335045841010704,-0.21861929995620302,-0.2462579285355526,0.33543237480585203,0.4519057787247028,-0.2965273776145321,0.3457716104043157,0.16784691827387566,-0.2922806314800605,-0.2426965784774139,0.020333290825078062,0.2929801648927482,-0.046657495833731126,0.04663431140497521,0.006614251331811839,0.1639321863128473,0.31656299028308127,0.2941813934281868,-0.4018515944799171,-0.27290618939984373,-0.15822472888940656,0.11670000905605953,0.08550167953240444,0.3186889029022096,0.20829605308111718,0.09430373089065826,-0.3635934050450601,-0.17453499342641238,0.1907870085236536,0.023583540736440714,-0.2847882545642083,0.10974987761753431,0.4194216984274474,0.18442049079250664,0.44956397097695927,0.2916853558279373,0.4261510024504619,-0.4778562447798129,-0.06530112604286216,0.3234031587050294,-0.014516657452886701,-0.19210518470252316,0.22598528398211412,0.6857944306257472,0.1987726776679923,0.14988752874521957,-0.43709902193317934,-0.22235220499751832,-0.1943812024793922,0.2644670756276371,-0.014011819257899369,0.1566176496926842,-0.2919923215660586,-0.36964651349685124,0.19411606241641477,-0.2782473312425208,-0.13639302701479764,-0.5695182589330903,-0.6817129400641858,-0.03293500538998833,-0.11432358359300582,-0.23100670742714866,0.2872446912057368,-0.7330594887833439,0.8251652573115613,0.3662731294620933,0.410102291909506,0.04667004150534653,1.1508037580535726,0.5969158586051954,0.02934198779482405,0.16918117390570458,-0.16726919918695196,-0.144611404450681,-0.39470344950486863,0.3731794159318466,-0.23111106356949365,0.3299407665418022,0.1094020501643687,-0.294564023282614,0.25234801590397915,0.4475842583235561,0.11092719048328425,0.4953951944247357,-0.2679798481304039,-0.08009790958213756,-0.22832217624255952,-0.8298687324381702,-0.4383669255082753,-0.13068417371876712,-0.26086195950904095,-0.6275118409291742,0.17823600112166646,-0.10732854446283158,0.06489591861499837,0.22804451397392125,0.21061113516255198,-0.2525243737700311,-0.004405421952266639,0.4262751789402122,0.8165479683282496,0.0021560992225304007,-0.4011372333386615,-0.37760928238769337,-0.4306035914916147,-0.05493016087335081,-0.16497103244515446,0.26540464924630247,0.27672293464693115,-0.03655554928835359,0.19172967525003232,0.4513843450336095,0.6617596075754701,-0.0252844005109611,-0.5297988947251543,-0.9055943462497401,-1.0536505342034865,-0.5490282968509628,-0.24904819856531998,-0.847012237912732,-0.18495981311238918,-0.21328269902752123,-0.22491317816258047,-0.28609170499584347,-0.23937235970457837,0.6897793094309886,0.2923447747399805,0.6463895531964897,1.0221340719254177,-0.5731674542841434,0.16145481923465263,-0.39329922885115637,0.22710687634146193,0.04021692338874632,-0.07654771663643396,-0.1957033231052662,0.4956307585859127,-0.05078229840678933,0.1736575168545771,0.32202847004345553,0.3841747925140484,-0.22950653818164665,-1.39721767654458,-0.4905036133432538,-0.524844239647952,0.19887660370077337,0.31632885136995137,0.10560257937834798,0.27602234578351303,-0.4158868785837377,-0.1569127360148277,-0.15043855500513192,-0.2326644132650267,-0.1223449430385496,-0.4804069014910862,-0.40306284070021675,0.876747715457274,-0.13642390588682757,-0.1843406118225421,0.03434568133244953,0.02104624417126931,0.09017531618462453,0.4873246633160899,-0.505444816404417,-0.22978814386696525,-0.27209582201205057,0.1977323128109767,0.10999525238391096,0.03332883224998093,-0.7978861698064735,-1.9982614326463763,0.5249482971356335,-0.5156140743025078,-0.004429962841784426,-0.32041711611766,-0.14304125179282506,-0.4339140383626628,-0.8607922966796517,-0.3268567859874691,0.07028043900793599,0.1741354083172401,0.2962861613913801,0.0631966600660763,0.18625605959982983,0.38059444568156836,0.35056134439231273,-0.29659548958970056,0.21870439269708455,-0.15296490435814614,0.256807014448442,-0.4491714982550544,-0.3784443597890459,-0.5136719873729219,0.3232259627718004,-0.034411735785782126,0.019533169773458117,-0.2619743308438487,-0.5553582208417118,-1.2471423523509673,-0.4045765589366385,0.027202744532989764,0.9249346590855356,-0.29801484653322424,0.37471309926560015,0.11791922700727465,0.24583243591506607,0.5733698600759082,-0.2622049026431116,0.2221667631880428,-0.381070756142089,0.8909765255392047,-0.8695422122623068,0.3740098161010019,0.6403222250165075,0.495959413204099,0.6326265287519348,-0.12618982604501386,0.09812524393232436,0.4092208879018598,0.3165188200926464,0.4420056793627069,0.000790579506896291,-0.6418099371152192,-0.6518410968444448,-0.7597388196143096,-0.4037983783299947,-0.13562016938188934,-0.403602045162995,-1.0448108123645103,0.3634259376303285,0.5938009825924423,0.5288091594192441,-0.8422946327177694,-0.5514244506685427,0.13822883738716238,0.3281065573660056,-0.1261254818413203,-0.39894434223553016,0.22847968967529556,0.10126333327980999,0.10888564355369647,0.6913091368744027,0.4559065257375984,-0.2427615115175214,0.41068518300787543,-0.24522377621473057,0.32012551178949217,-0.13557609933243173,0.021997427331749437,0.10672835495029048,-0.5558833817504792,-0.28039401191525565,-1.0432349406504438,-0.7088425943128667,0.015066352030846613,0.49779206980391244,0.19374288140612364,-0.29457528665944466,0.8017595105292209,0.20281382329682002,0.05192693404023464,0.4472017839253775,-0.5024397776399823,0.2873219700104268,-0.5535153477216639,0.08309275168401589,0.6303193515786183,-0.2512725357469835,-0.39637565887740017,0.6250728400911262,0.11565059478940488,0.11888261881669814,0.038066857974037534,-0.22438707311268424,0.4899544313842188,-0.3282337751087658,-0.12178834518846847,-0.3074007123505787,-0.011153657560731264,-0.6831767969153718,0.2706131818740346,-0.25067516120376165,-1.3154406192076922,-0.013813850277806768,-0.11102955342082199,0.3686746699105698,0.5819554037106095,1.537814846045317,0.5067339462330387,-0.40314458327330005,0.044439397792787626,-0.3330857280871265,0.10282505508525813,0.23118666368938193,0.33364467887956034,0.020458401474940106,0.4112045262488983,1.2685269805212012,0.2752036359409952,0.05530875365447601,0.21140120736876672,0.1928982563791519,0.25255349705061464,-0.18233533577263863,0.20331893910644835,0.30835205530471743,-0.10590401645745014,-0.6311377221445978,-0.12786908607266184,-1.0998764033687707,0.021907114087983483,-0.16009855799281722,0.07735515732582196,0.16462534308431617,-0.5411556779956366,0.10421453461695795,-0.44045161612580197,0.5359308838047396,-0.5037551307961814,0.4312135334765149,-0.2914580602115089,-0.09794417727273419,0.1790512012293747,0.31316465512033603,-0.5894187163118243,0.5476261501029059,0.5620969928473416,0.08523500506817323,-0.13678545488167523,0.22252671648457945,0.4158042243527148,0.3729697394973431,0.3859889391035145,-0.10343501391098744,-0.7114661791722766,0.16946588026024478,-0.3291386335670921,-0.42334447250239027,-0.7549936102887218,0.1963614626364347,0.02563973039873061,0.6427107585428349,0.749729107524494,0.0014803792197857994,0.6363499057826845,-0.3755480042892855,0.004329187377810186,-0.2873047632877785,-0.6109848501267293,0.15310798739474454,0.29718303434386917,-0.39053045001260356,-0.5241983585899455,-0.8393526981089353,-0.567237372498997,-0.6902369347634144,-0.21349273293600762,-0.1825941299304487,-0.341381256118023,-0.28838845823157266,-0.24938432176405365,0.13353706651650077,-0.7453102239183174,0.04988275381685973,0.03866094041382689,0.3033174111757284,0.46001159258896773,0.18946805164685313,-0.41947722584649116,0.6845359389615814,-0.8083197309966135,0.13058642556423214,0.0547720541190599,0.24616115179524609,0.7395749033227593,-0.3210168208255211,0.33673160019701204,-0.8736964213722554,-0.7445021404910735,-0.4027982301092824,-1.799912743299519,-0.8059215517551521,-1.3384113642642201,-0.24919072726505861,0.37136296059412943,-0.1299772755574366,-0.16852396307570447,-0.4511720606535408,0.21039577466989792,-0.4002596110298729,0.2167296965061598,-0.2340280859402243,-0.022090900278919127,-0.43667826530450976,0.28184947072492406,-0.09266796343399429,-0.5361513692019728,0.07292984048370521,0.44299654937086597,0.6470991038880556,-0.0059475548042725495,-0.3152554292196508,-0.6400077991644074,-0.913112468272288,-0.09495770563397041,1.2492241844652199,0.34360810279311554,0.023797597467019597,-1.3776205941753055,-0.8248814704333397,-0.014510841834335332,0.10969763097611065,-0.4739971845535709,0.4947742418146447,0.10791010565304028,0.06263378121799361,-0.31344368383476545,-0.8134475718279187,0.10544090094826018,-0.430860833427843,0.2990169785674413,0.2562855649523175,0.07470494257381652,0.1691628316981438,-0.23509039666484854,0.3892080606998329,-0.4210369800947708,0.15437087247942743,-0.38884207782528263,-0.5583819419941849,0.6451461160569035,-0.012735254023386619,-0.0984975157209797,-0.19401505424074333,-0.022221669992566303,-0.272225760366244,-1.5607448189515998,-0.8883538652426034,-0.243580656855903,-0.850499195874691,0.2578967001950916,0.274287791506788,0.2647171335673957,0.025778798441532788,-0.36193005491827973,0.38728934275853755,-0.19283871534626892,0.027364479044687636,-0.7116739280800928,-0.5256026387694437,-0.5277659595994548,-0.3388107364727969,-0.15506879777290639,0.4192966230945417,0.06323736117865478,0.5867809767827626,-0.1408465386665994,0.019428722980059814,-0.6318376873401219,-0.22903986209268237,-0.04303346950734238,-0.3692180233156515,-0.813660095424788,0.22369508966138876,-0.8053772269354444,-1.1914323531561444,-0.6895475755348424,-0.15920436531213591,-0.24029136750838134,0.00871901638537228,0.30242763483628715,-0.13304270497485343,-0.11136111863036033,-0.02395003775135095,0.2579205462650221,-0.14341111585933106,0.1202207999605567,-0.5713169880675547,0.05386116206332486,0.931343522371447,-0.44708065295193955,-0.16593841312087307,-0.23423506986022577,0.9712818960053213,-0.5610799084124015,-0.5036039752778418,-0.1427622004199687,0.6534122930114021,-0.33280887399389525,0.6862345074339533,-0.29756821975750597,-0.4769538819991822,0.079022171884066,-0.8473571981792366,-0.8514597560634546,-0.08656552077306061,-0.260066450506532,0.3997050984167371,-0.33889056964540776,-0.06358709937631929,-1.1227667877883232,0.09480759660233319,-0.711815531362189,-0.024335683134384712,0.2531160346814484,0.8912753452851977,0.002428754770459073,-0.22964231301400995,0.16693099866239525,-0.19719130446212596,-0.190926601445384,0.6173546475732578,0.4405703650991581,-0.2880761861787752,0.5639051254686149,-0.18387412633808917,-0.28673619940258577,-0.45286117106454565,-0.035957412342236386,-1.2263431085126089,-0.8883283914275083,-0.3064826715104745,-0.1279189258161518,-0.042285234146037035,0.1981229246891857,0.2858296841741117,-0.5073586740099856,-0.34056531263240714,-0.17862472241599747,-0.7466405739753722,0.26943437207028215,-0.6031263121242028,0.42290114097613657,-0.5654727530069664,-0.17910221983979016,0.2994599857631541,0.950290368503153,0.21487182904937427,-0.2934316429085875,-0.1599283028200386,-0.7777941104819279,0.22008741781232508,-0.5295317190553819,-0.11051795881113723,0.28150084815292187,-0.9342187345708846,-0.06267563096770798,-1.4125813497711472,-1.1688701733584868,0.021232197203950424,-0.32573105527331603,0.29519974367743124,0.2953319797358161,-0.32212756704213513,-0.14624270037476875,-0.5024485269745034,-0.34557523297183335,-0.659233683075464,0.06494394404345674,0.04521126787358058,-0.5274118473328279,0.18902359568028856,0.8191326957726944,-0.31322129224631406,-0.008063023694499778,0.13297720246158418,-0.2952375449076842,0.6748342713280583,0.11330841195639914,-0.0999385849534874,0.2942389465593664,0.047761515502220776,0.040480735787863,-0.4497425705375783,0.16328715421406662,-0.9806074730073051,-0.9969968142553536,-0.004165958948599572,0.07535048872843507,0.3492688950416488,-0.011702934881804235,-0.23451421223149768,0.2877153068972052,-0.09399840128851945,-0.27410646762790825,-0.1313603637190404,-0.9390772352781593,0.3836112447330457,0.48572006400553924,-0.0987358155680756,-0.09662819583683506,0.20063844879552414,0.6438528129322333,-0.03215706792932974,0.021219542565874487,-0.7404588472719247,-0.23806126496036456,-0.449997179306932,-0.5708556530994761,0.5794886215426789,-0.3387757174560949,-0.46155816334136435,-0.13799036976958304,-0.05761067469916796,-0.30067730414869787,-0.0785695618392567,-0.04993578206110687,0.351597753489239,-0.317197595260936,-0.17967765147872064,0.3114359237333075,-0.25917866462844186,-0.10098830004102766,0.11181829564002593,-0.43348959049804947,-0.22951025423581076,-0.3691759941608958,-0.05636150966882034,0.23641468065853635,-0.08097569707984661,-1.2021861705408692,0.6477014339134951,-0.24149171760771668,0.5068924943130797,-0.113210616290452,-0.06011900829786817,-0.6274214650479745,-0.52552469201316,-0.33070412536868027,-0.5654949800515429,0.1393402906257903,0.11817087241181715,0.20481784011636128,-0.29112091467350565,-0.07587854284018039,-0.10487024940496358,0.16333700528168818,0.11475005432097556,-0.16638492751687187,0.04926742304214486,-0.5567911728079487,-0.5715507124812559,0.42085074499839864,0.7841303388848889,0.019090718216013797,0.577992505307172,0.042931757886483,0.2897503357371027,0.29759393373931725,-0.09909170169138991,-0.31869228343098815,0.07622912616859702,0.01779876596946943,0.010469954430900291,0.9955356074535118,-0.4106069655946555,-1.0490852347468183,-0.15410675874516444,-0.5734911777359591,-0.08684204253270061,0.42199372234418514,-0.12334604359685837,0.20126389899113956,0.5010224040601504,-0.049743831045075286,0.3667500284088428,0.003031148406027256,0.16515675974632907,-0.10196487168132898,-0.34047955537249525,0.5082139649166891,-0.17040493717708333,-0.2397306142244636,-0.5735370766085622,0.40371386677472615,-0.18785752845765344,-0.5212039958462963,0.22572028997626037,-0.34679175500515025,-0.6281542249250348,-0.285286637573622,-0.16889144983547974,0.20969494756840193,-0.41605229916706393,0.06532195737718008,-0.040640914695448685,0.2473944356263832,0.0521644386063109,0.46270735542302643,0.03269274236164171,-0.04157539116017685,-0.4859505623350299,0.27107263207709026,0.4922266254519035,-0.1835844117599115,0.4526441548727409,-0.39605402658731115,-0.3944267733450203,-0.08686170858028983,-0.6803107267350605,-0.08004701516581723,-0.5713206825097749,-0.32811264330674894,0.24897099682470036,0.2254886096613139,0.06102114495841993,0.09767870526845887,0.39075756515291377,-0.4838815574592171,-0.05549654759043106,-0.034761049359075195,-0.25454621074879746,0.08821816889665511,-0.32329354326037496,0.1129897496897049,-0.2836308328606493,-0.2731830243106221,-0.02022716094518194,0.4834420309651726,0.40281610049244365,-0.1987190824183506,0.09550792340851404,-0.2319180314881967,0.31317168263578404,0.28817457783069433,-0.4328521800492815,0.8053197837671563,0.057045485080512645,-0.41659715601518343,-0.2544241531931683,-0.6014573611793639,-0.8058349737960028,-0.058738040513018425,0.40833181078896136,-0.2781215644012815,0.5926469387186395,0.683442180655117,0.5585386860437643,-0.3816814155222184,-0.33289409574657625,0.24741336448987006,-0.07978395846855997,-0.2175525530955891,0.2221727635591068,0.46499688667460903,-0.1220429422688244,0.40363952765984973,-0.4124996276884952,0.16434288604607047,-0.16276656607951515,-0.45163076537633634,0.25754933962264254,0.0011188247080186557,0.021693789683773317,-0.06543185165742796,0.3802219178771875,-0.40667412350149973,0.28837071400434205,-0.23488119478259883,-0.2766596325913794,-0.20884135431546144,-0.12367932159511281,-0.4073641796720642,0.08388511651646315,0.28938444806342184,0.28407750418093614,0.366459642499368,-0.05598346135274494,0.46412007019112406,-0.3327893550180654,0.4208625292331979,-0.15924836270769685,-0.3973860566667546,-0.29772055645790524,0.47052177373830467,0.00385939875395844,-0.16700367438629374~,-0.4529775873069217,-0.4759692772117342,-0.32725546140524686,0.419357796721174,-0.14655485676029514,-0.33656354473883865,0.38889064205511004,0.41742541618617146,-0.4788345199827715,0.29526571810155966,-0.05383412083355696,-0.2660773462917583,0.15743919254311164,-0.04661031816124617,0.11594748901153093,-0.35622874312921593,0.24715569212723695,-0.2941159167260713,-0.3450987393403607,-0.26900508689591685,0.2829550442524461,0.4469234265153821,-0.4159276417641118,-0.10371096563251377,0.009954399035168994,-0.34472658356748,-0.3091023802750532,-0.3559425299445066,-0.10421773664667373,-0.05914937500941117,0.2920468217771799,0.16665738760441604,-0.11423913786212032,0.3279503516581857,-0.46599665074564584,-0.07453129242826408,0.09497402613438262,-0.020237036917811046,0.38291736644287433,-0.06854412288582228,0.17884351571361481,-0.2780691818776586,-0.06943940772895466,0.5175462267572012,-0.23925818717614142,0.18624288313105056,0.41709542344478895,-0.13102627340966358,0.22294775847768145,0.003327710760260529,0.21394699064114847,0.3219577422383832,-0.05605691192246384,0.17611730720318539,-0.30662468319577096,-0.17895617491767837,-0.3660688734512374,0.09575064825105177,-0.09277406259371244,-0.07823572484208925,-0.31684243048722405,0.17506387731628326,0.1413832692935056,-0.032712951294109435,0.20203256007436327,0.5723983591311049,0.3032085100997258,-0.3226269110349562,0.6553932258927333,0.40825128488246487,0.6247543566169573,0.6184907090083231,0.08626647009689646,0.31582416500715327,0.2147806243532569,0.12027299799508465,0.0523981971181629,0.3192786944863347,-0.029830026876117872,0.27405437658574744,-0.13864296101008738,-0.0313457718665276,0.23855273783383033,-0.47999273648725205,-0.01353016791370659,-0.3455477579197578,0.14445892585896505,0.15775188615476773,0.22887364060010607,0.015215074513221278,-0.2032916804110383,0.5137235853658384,-0.11769696939844264,0.49652044744501844,1.0484059805775994,1.1219076379563817,1.0305754242180458,0.3005852955153271,0.7070700006081744,-0.09548890360545095,-0.7951725957299841,-0.1780316939778046,0.21971294896477894,1.455879003469767,0.9250204558077004,0.318039187611515,-0.2802345097957851,0.30909154368822406,0.26987784267621806,0.3459732105150537,0.23226239412856095,-0.0755314356338453,0.2580512461818648,0.19319193577696755,0.23942220597664227,0.11101909309777416,0.36734650838536137,0.05253316216196381,0.7455553928043456,0.5482796900500292,0.37160918921022207,-0.011200375693805824,0.6213649604296221,0.21337179880268933,0.3073070580376565,-0.3869290751408213,0.26557207040981107,-0.26338605019011646,0.5575583652685471,-0.21515046416490405,-0.3828995153615588,-0.0341837921020852,0.05359827019231161,0.24495739209033648,-0.28296761292026135,-0.37517712570375505,0.21268437806525675,0.5780633654555685,0.2900384074449838,-0.10501069891718305,0.39348816725720537,-0.27793697488042457,0.24898469413009724,0.08449573480219051,0.3045878354662567,0.26622950989693683,0.7997203933011644,0.5489306851342399,-0.4822971901419195,0.17861784114874427,-0.1722314870681422,-0.5279301884879549,0.3139977188716167,-0.1402885331803732,0.03398342254136716,-0.21576797093449926,-0.8472842132108893,0.1958694974543599,-0.16391936984282623,-0.5080884388447393,0.2595927071943263,0.5582501324977893,0.19550394484437697,0.2292200389731063,0.5788401466116868,0.6111737237824053,-0.04041787484344124,-0.07006426854949009,-0.26422988647551426,-0.07260491095785199,-0.34193595826774414,-0.3103627188071657,-0.17894393516369198,0.5695621332631149,0.528641496999308,-0.8016847202428413,-0.32744204412899625,0.8814216554586576,-0.5298242008869042,0.2313458217155547,0.02314303920769036,0.0024208182563515614,0.23447983136586883,-0.7077989915874894,0.6761299736270289,-0.22410909392162973,-0.5037880006661714,-0.23344850979409584,0.2915272575876121,-0.566494421336881,-0.8431415749011147,-0.15538768326074318,0.9026662648372284,0.2213943473724225,0.3940851828474891,0.48581251107867357,-0.02333017846501119,0.3297182884606633,-0.4555839034199984,-0.37114342474827056,-0.12143356646792429,0.3270854126488765,0.20415608760246184,-0.3929436461911358,1.1254001058166734,0.4860711944429836,-0.3048899199872272,-0.2417596914209279,0.1418641977374474,-0.6143886162502855,-0.03324787244075943,-0.3240402147369407,0.6327312036590111,-1.2015826833757866,-0.8572857582277793,-0.42625000088291526,-0.4216559072755471,-0.47478797114854154,0.44242295952418587,0.4044666120117946,0.8277880960542819,0.27867161032144866,0.8793162931766129,0.3371322856856063,-0.3854861257678737,-0.04255005636009628,0.4794798985463282,-0.013327583128467244,0.26485828307490505,0.23853913665980578,-0.8313875779236796,0.17659581067978122,0.554465728038243,-0.24357636497134352,0.08537085943965238,-0.09307143024440005,0.07726723147493181,-0.06646966736968522,0.010635073410081656,-0.10341175148998816,-1.0225766329362527,-0.5078429643839674,-0.7065337702725462,0.5939446821056674,-0.1946578667803224,0.08414632652846206,0.20666527742076313,-0.15641046196295735,0.4330112493286517,0.7824871096161881,-0.034872953740258325,-0.11687116970661665,-0.39973343151501844,0.2721592665454186,-0.42443361849881706,0.4097374166533001,0.32176922848784445,0.386759195757788,-0.2781063554932705,-0.0638883606027805,0.5870855891362033,-0.3258560564321481,0.12421443545065267,0.5569105537409169,0.4289786205992926,-0.15346019028291855,0.5483004699425855,-0.3851442615875015,-0.22117371497302032,-0.09498833149164594,-0.8726859906078804,-1.1000855141322232,-0.12114781735139579,0.12446166497257614,-0.666319387407454,-0.7545327160705934,0.42383475176135443,1.2094761522508208,0.2653656956365265,0.1446286355991633,-0.20823267742852247,0.22315891497963797,0.0605211045238218,0.5970686588477354,0.5475548618383582,0.49769009365986866,1.0203112486689085,0.28628501064726364,0.8238674846568256,0.37638688870413095,-0.14624313970672365,-0.18433303410581353,-0.4630986203071594,-0.0008944316914366291,0.3081092736686358,0.17262493822958427,0.01129780899924235,-0.45142622780834063,-0.4352792689284745,0.617601080831941,-0.21364443492351054,0.1811174335087231,-1.3660664313437314,-0.15407276794665936,-0.08160010984325167,0.25153276727748897,0.36040818050957085,-0.21315749087842786,0.1552350943789129,-0.33792374840380335,-0.2875635936717385,0.7018717173932738,-0.04968443405407952,0.5988393261118884,-0.4551216964705189,-0.3173919828099114,-0.8321520548766191,0.30031083085793286,-0.26327707264539996,0.5899960783276534,0.3725850515892082,-0.6296201489338396,0.6390691719108899,0.3043150583603352,0.31890215751564327,0.5789512637563037,-0.12819750371435698,0.7580113072622116,-0.9613908700587327,-0.7364395436412026,-0.16808055823372675,0.3002002544969415,0.2506402267442158,0.08923071913600741,-0.20788814342998058,-0.1368043060201791,-0.1690732763724838,0.03647506945696306,-0.1665155196610359,0.2277703085267486,0.48792032845795336,-0.34271304629581484,-0.6996673800880095,-0.21690203180330872,-0.20287460463711732,0.6948609790370317,-0.25994173938416404,0.2046447680538734,0.11935633821819888,0.5517223903243229,0.2406068011637506,0.5813784825460331,1.5828111445969173,0.5139840862851877,-0.7764303573511301,-0.516782356557641,-0.5569620156123147,0.6391261169174859,-0.1611869741757414,-0.037619025468208604,-0.08453827590352152,0.21247711232835612,-0.03364310860319412,-0.26886285652299763,-0.21197352500565977,0.3894379658624705,0.17498707391875398,0.014045056165231128,-0.9028589546197034,-0.14142771832850262,-0.4553843661543534,-0.005342758301718356,-0.11627734713723191,-0.5856289133619235,-0.7020308784975806,0.5011579828061102,0.2936976068952258,0.34778645089079113,-0.004510517120322712,1.5070482903609312,1.4733502152679654,-0.14672549662143103,-0.042384288067973196,0.540647686638983,0.37129864561479786,-0.031475191565045975,-0.057430715643228034,-0.4224383390296237,0.3485623800958669,-0.127938391804668,-0.4103545553038275,-0.44280858906711584,0.37343143151575386,0.37016312447473027,0.4205641514689832,0.05804913799144953,-0.308180035970414,-0.8319859797448083,-0.4487459477042883,-0.9117292292003166,-0.027459945089733703,-0.2790469184701366,-0.009598113249303961,-0.021147593376270823,0.08535857195110831,-0.20748953463871414,0.3652504557373877,1.8597180350650804,1.1856146493161237,-0.0050912297912438205,-0.035623028935776145,0.32021987196563995,-1.0287055464324466,-0.045553043405363154,-0.8914494250721349,-0.05582730355768436,-0.7170321247145848,-0.1840430979466679,0.07681297668353092,0.47627851377966984,0.30087418128669574,0.3554088920093725,0.44936919678512804,-0.34717777783293335,-0.6866833602257193,0.06668244471751081,0.26021732770721295,-0.844466199629956,-0.03752101747425784,0.014951348038493026,-0.8205516751778967,0.16806694508359582,-0.09255539819703995,0.26417335051049046,1.403336846214741,1.3590700191387348,0.02086112921622189,0.5037908944528469,-0.03665666196836308,-0.014875520644461267,-0.2770375958076162,-0.17355417025979972,0.09800991937926208,-0.5588901062166778,-0.4275030335045273,-0.29161298467886887,0.2448570298957637,0.22904517647067602,-0.3364595435962813,-0.3929419691166277,0.29171720829404457,-0.031397392687062875,-0.04504453051549078,-0.5362947198067578,-0.8323471462531867,-0.10541740456685136,-0.6729636312725993,-0.7521690888045042,0.17674030522261525,-0.15095235122147185,0.5716613913073045,1.1306009684930824,1.0789607155249081,0.48716911773553384,0.39344229469938347,-0.3303008022505026,-0.30272253365576,0.1407648592744085,-0.17660683091299004,-0.5478794107349741,0.4647760583741444,-0.7219702167864891,-0.209134592575517,0.060039990820101474,-0.14830229548829296,-0.15944135772453968,-0.3681144229703427,0.3370789720674028,0.07478016431884825,0.5957765128421535,-0.33082019302977755,-0.23453832705962635,-1.050559343679764,-0.4792922284882876,-0.0455555666145803,0.10635125770646907,-0.5454308903084442,0.5162518087983013,1.055990722212507,0.2905348456425031,0.22202381021118034,0.2803882781480853,0.4817371329087756,0.12986652770990853,0.9019585684934377,-0.34595026740603796,0.04385600792516256,0.08236295247501554,0.2049007710808994,0.3458095326056171,0.3878780016267637,-0.04916474202879466,0.3980781337347349,0.4170518801650243,-0.2360058230476126,0.21034196605651778,0.10676801582670682,0.4144044441901425,-0.2372091272122899,0.31890291909487556,0.14947970820909479,0.23012763764224767,-0.7770353900928337,-0.44467949297500886,-0.5692451489892343,-0.20905846367046615,1.376835511493363,0.9915523577196005,0.3368800260946794,0.4015415741264858,-0.7865727578744227,-0.3351658351085598,0.18556659159138966,-0.6237854105366372,0.794307087433466,-0.25439470860527186,-0.051110358848860386,-0.04574745331157178,0.40752298694298555,0.37120212668732333,0.38285388583924684,-0.34400060478136446,0.26391764374973237,-0.3210886628371564,0.41355730870073737,0.6118187894271095,0.24115087626540097,0.5825652351808871,-0.33249865311602234,0.2700100456090408,-0.5572619383419374,-0.33225382671538195,0.0331715476625143,-0.5408936150544205,0.45077115885505414,0.5052070407461361,0.37100913092271753,0.44674881878500167,0.8464655562872585,0.6220412839678806,-0.12685297505626492,0.5007930562812062,-0.3775269136960383,-0.7760697190682405,-0.3389625887921834,-0.041587012847271516,0.17365755637986827,-0.4039303907710362,-0.4492013540997101,-0.4688230674141194,-0.34315409264082053,-0.08218696226287009,-0.47656315744615707,-0.14387803661121604,0.1547898734785022,-0.33934760979844253,0.07514653999411249,0.5910914117913547,-0.5345609487876395,0.1823509557031125,-0.7908300710922117,-0.1920953815858552,0.09768765420831575,0.3891617843939969,1.0561407037674977,-0.6013772148161372,-0.07647076652910022,-0.07710175015564852,0.051706490800914114,1.278606388114173,0.6953075685542583,-0.01742699215598005,0.74137125204768,0.7609571623002266,0.4070882152126754,-0.38355019944674407,-0.32387258343499686,0.025764268035186427,0.113146044740379,-0.14765087272897645,0.5682490922296844,0.18481484065723588,0.5479838716925619,-0.03221236470261034,-0.6189486998248868,-0.8890264551597856,0.7248481532888923,-0.3595225391815849,0.1236620759837751,-0.4483187241313964,0.3139731215818251,-0.6032981510912269,0.7144082865365189,0.4220551394227861,0.1894965966346019,1.2217643874531807,0.25992199934851784,0.8038988383241666,0.0941272933381681,0.36675111815401434,0.6823804431595227,0.3806272766893815,-0.2595307519543757,0.2782758268506433,0.02667912786247072,-0.41862504058469113,-0.29675896044478767,0.2261597314888641,-0.3015234094504814,0.41954891232933805,0.5780758006118836,0.017010382177904706,-0.09295909735778042,0.12766440054248107,-0.5568388117237998,0.6170441097021376,0.4598029806795939,-0.12017722809726224,-0.4853463267393746,-0.5445077419748706,0.556217706507072,0.018555929661350945,0.04810920777703393,0.2874931627754544,-0.19503979891774276,-0.06265559660883986,0.3618358847451041,0.6488736467377628,0.7000394588762555,0.22829099417379847,0.5922443246765076,-0.28204025421230433,-0.00774861347198235,-0.3577295637452515,0.1468120440570124,-0.2535709610629223,-0.16466657394086542,0.024129726530801813,-0.04538305722299167,-0.019999322590291073,-0.520522091306096,0.012654599360749223,-0.05058380503100048,-0.426642610904733,0.12434005863028785,-0.3133150602047816,-1.0851225149410737,-0.0040401834959307254,-0.19743865393163246,0.22678562313902723,-0.012006534332654995,0.3825838862741064,0.6196769964721643,0.8917997637116366,0.8652602118233309,0.052196830315839465,-0.16685859586199994,0.1507746538843398,-0.1473280504739404,0.1506603650567568,0.055840850775306795,0.3394794633947352,-0.09551757033642412,0.29545134206134294,0.2752124495508765,0.38653489406975283,0.29879724494364235,-0.18920374712220275,0.15592722570804438,-0.3763370480932261,0.5410784753377018,-0.05579003332329464,-0.05173361068679658,0.41944665615217536,-0.010643419480771653,-0.6936465468538602,-0.4300186482727345,-0.271471176716339,-0.538942762460273,0.15480763633191838,0.22214257664070527,0.8500373954152305,0.63466990733258,0.23876613775649766,-0.10104286313523084,-0.07595785687650175,0.030693772048240916,0.31246327851701466,0.15480418042919122,-0.4065003185741215,-0.10688255701598677,-0.05532017955341581,0.33416259404912385,0.3529438022074985,0.38336672844426783,0.10930504894925425,-0.04441582161105548,0.3060407094911217,0.02866804218964567,0.5771622102739482,1.031309538825081,0.2818773883622778,1.006101010595142,0.6333558801915419,0.21945561159594365,0.47439286102367506,0.013444494190608496,0.6890830133531949,0.4297276477397386,0.5087931142686413,0.6985305428866043,0.7224726304880413,-0.316752398688603,-0.21729758478579245,0.2013332092764443,0.05036732888655699,-0.301721931250316,0.22251062620220027,-0.46384360344545184,0.26732587163311594,-0.11654785073578573,0.402338051463723,-0.01235932092381519,-0.20947082037082698,-0.09452740302641033,-0.19832509265706041,0.4186039961981874,0.7296936272469903,0.7353912146090349,0.4918317540139999,0.20968099585218594,0.5303785188883577,0.3671202080529686,0.48382497457177,-0.2770686499771958,0.662540348792054,0.18147860302708144,-0.20626513462829899,-0.38530779629821943,0.06822682204604406,0.22671996023216262,-0.01734516872228574,0.46006031761886107,-0.14154371883811312,0.03710569441673453,0.15111441782688237,-0.18852638085009835,-0.10969448305519088,0.347104721995968,-0.07305616914669406,0.48288992452920415,0.43535941505005255,-0.35719161289739515,-0.32011569038870613,0.12767029513305653,0.4155335479464422,-0.16589641638164762,0.21589911036526555,0.10315846821287387,-0.05407025286679509,0.5018701002749565,0.4327210200623102,-0.079408094434703,-0.40685286863516507,0.18246564635561063,0.3425328852241705,0.17397005504208518,-0.2585648200073904,-0.2860505512645322,-0.1691907227983111,-0.004075128631972372,-0.4590476204384658,0.09660420336863688,-0.1386308392462974~,-0.139746528954207,0.20047042797946127,0.3938160218461238,-0.4264381077193156,0.4722934746086385,0.2742372490881749,0.37380949543066216,-0.033053415139411416,-0.28244314245366126,0.04181251481196856,0.13888979535358872,-0.03439312910745142,-0.1923133913864718,0.5004637704515724,0.3641767348551443,-0.4686349099509498,-0.4422915438948843,0.29197568513897904,-0.3186991522527896,-0.3124651928354854,0.05091554091759397,-0.34404824373601456,0.16729392129869972,-0.4535902184749538,-0.1289488038108135,-0.2859020135594294,0.18587795238538354,-0.4702723633374572,-0.4139449920666109,0.1649006350090925,0.33748571833069935,-0.47036660126608526,0.34646509253538116,-0.39958390563923724,-0.04825570993056191,-0.24990231450693434,0.4617748460364616,-0.07659279961557035,-0.059965942722301185,-0.04106096561996475,-0.2172084451313015,0.023334731009475314,-0.03788396319914932,0.31521404435017925,-0.2613373355380865,-0.21708093366382553,0.1708545357003881,-0.2689691291344062,-0.20554049781820122,0.02919384401345278,0.27721934908748935,-0.2248406887454944,0.3844441510745103,-0.1968397403255467,0.08329919190723817,-0.34948487361300024,-0.47869774540705795,-0.05836416460474725,0.06604307289642886,-0.4883836337638555,0.282926409005915,0.04312766991089594,-0.31756153645321844,-0.005985142389898277,-0.13217345178729292,-0.2431447140731355,-0.410752576268686,-0.256015554071352,0.056937671030702616,-0.18636450099381044,-0.08095349801767114,0.031043573365066853,0.2994178633221879,0.3028513616847066,-0.3516458916976837,0.30733865541258754,0.06476885604482144,-0.06169918126887384,-0.13774898602305402,0.13311318317871262,-0.3323487490963224,0.3904267548933043,-0.12327768945021166,-0.2168912851344422,-0.48828272405456247,-0.4351926116672548,0.14871060661580715,-0.4390668409938091,-0.10226269248823674,0.4235764247313358,-0.019028361886534617,-0.027421095217306592,-0.04109398284876934,0.4618627995764954,-0.04072487808532363,0.4255547839620995,0.1787932834821691,0.0012155977333257188,-0.43635763668756955,0.5058914432093011,0.10515097379230265,0.30123756072803115,0.05232300763683627,0.13125061107756636,0.5857655795415901,0.5097457089414421,-0.488227512671119,-0.4624194307930166,-0.16773386189337033,-0.18275784954642488,-0.10049809198740979,0.41332553263716026,-0.46042330296087725,0.11465108322512342,0.01843856652915134,-0.19886367474478364,0.4019175765263914,0.0170489425118286,0.3601263327134227,-0.1693585960012337,0.38701444917956807,-0.12874389453072702,-0.3983782234344665,0.38947970764630513,0.3169107944060195,0.022455527705916686,-0.2103974341368251,0.06645013918240437,0.12051127981414989,-0.2672128014008382,-0.21270427314504042,-0.24689147576276788,-0.010683991669145854,0.6023433956096343,0.2547459084739201,-0.13578732065317548,0.013081549748026484,-0.278883351880837,-0.3944360438956841,0.36899532151308484,-0.4523788502285206,-0.383394858352422,-0.06669607688388716,0.3283440453557649,-0.3408248660344336,0.24391205733818896,0.4477049614862228,-0.006391589699582954,0.2561955225389435,-0.30642739557349996,-0.3792566567711821,-0.6182442655726474,-0.24721291705156984,-0.1537302864220718,0.015202739186587226,-0.1307965134563909,-0.3142171990751823,-0.40470870619673566,-0.22028423727878707,0.1975647306666308,-0.08446174413710712,-0.510016867920695,-0.7209559889245883,0.055113138256467596,-0.42417839060820883,0.04598814261038879,0.4060236689003522,-0.08320082872309603,-0.4096099458758467,-0.2492688623275012,-0.26499904087661214,-0.45461476742617873,0.36430033457807776,-0.37085255534028017,0.29724224271851835,0.39783082523755414,0.41656410567048807,0.44223777452640156,-0.29868549980874254,-0.5161055545443561,-0.7323295414146188,-0.7029340826047595,-0.8097435995498591,-0.2500402808613968,-0.06367885123957306,-0.06581517258451554,-0.07218807973578019,0.3931277388470996,0.22166784433343886,0.29290809010614893,-0.5057916291375013,-0.5875265466716605,-0.4305852113881788,0.022637375778297265,-0.4406596769173901,-0.2833429278001186,0.44915613785382547,0.5064029071263343,-0.0772301217376929,-0.4422305259403366,0.26342881091163545,0.36469515011249626,0.3138640576678452,-0.013325521374878788,-0.37453786710093184,-0.26171957213674757,0.029007044748687136,-0.19799774069763762,-0.6940487789082165,-0.7516395622325073,-0.9160867029875859,-0.6625029473936919,0.08336710739789956,-0.009257022107932812,-0.14318593608251184,0.5317223363781403,-0.2122705868887647,0.2832523413944265,0.09981374178528116,-0.5603891909368393,0.41788948064958087,0.44270674670342564,0.18643452316878353,0.024245748216710297,-0.3881522819668711,0.008718161810166934,0.2819507388369015,-0.3287327944634856,-0.2229022121086568,-0.41670138892249875,-0.18590481724685656,-0.4140494330003087,0.05673749126802617,-0.6628117324239545,-0.5527323437930707,-0.7516112664475831,0.03419601215600821,-0.17520013464119913,-0.18683945212809666,-0.11814913134405973,0.5886377954301211,-0.062150824434580726,-0.046246147076862004,-0.14402863143653113,0.31630596372580677,0.14753439984607292,0.026000309352928897,0.2271071516936658,-0.07226419377970596,-0.2091676265058401,0.06276347604153108,-0.17085001758117604,0.14771174660809724,-0.44035832130823244,0.30984606480954896,0.4099324714083861,0.17549203305902783,-0.41018687408659726,-0.35891438864042546,-0.4089228667296688,-0.5409004734080771,-0.27368582905973166,0.05053753146106181,0.28560303066672965,1.05095150917013,0.8328724232757071,-0.00704813507213504,0.5803519366143258,0.3480345551454759,-0.33823098721983985,-0.6806935693879751,0.009578772711243957,-0.3164512810062307,0.02455210754475278,0.5203646120451318,0.5267192852849307,-0.2555728205656177,0.17551023703654478,-0.01072928599512195,-0.48486305210460373,0.44625541200997737,-0.04020681249470761,0.2674626632959586,-0.39599479511211266,0.28035012153451433,-0.037108590282569985,-0.3317717129793936,-0.4271788062765407,-0.3639087394149915,0.5265995755520241,0.17876629289295443,0.4035603948576341,0.9580793927732011,1.0697285547792048,0.45968978176128195,0.5914595181606265,-0.1032977220502391,0.39093949973707176,-0.3978475175861703,-0.8214772110249774,-0.05058118934427493,-0.12469631219305426,-0.055965747732020045,0.4697897398042142,0.24580914125662845,-0.5202131648195164,-0.41054456089091446,0.014677262840542094,0.4498631123364492,-0.19368625549487878,0.05259788413145873,0.2970579930030123,0.04625058217787007,-0.22048974865203302,0.4445265985437512,0.5463115737799776,0.6249699809266536,0.545970152138029,0.5794297999016336,0.037345314732315636,0.19766741087382206,0.8077275778538131,0.3092828614688305,-0.11453287195131054,-0.32940983470198104,-0.024036334514955807,0.0229742806802414,0.38354268051212886,0.5394705760594648,-0.17684849808595807,-0.3396944319585207,-0.5315676451172652,-0.45706317513189026,0.19814510467305455,-0.19308377458140377,0.17118277421740108,-0.12559834189936214,0.31907769689379584,0.46619031880319023,-0.11424107828890687,-0.18144855240466676,-0.021677613850260426,-0.16747512880838789,0.289802474774635,-0.1368745181502427,0.45975210540087896,-0.2605685727360992,-0.4134360101149677,-0.10461871726088691,-0.5252122139699252,-0.5173132594298114,-0.026674886145509186,0.40015504021211923,-0.190333472076492,0.5614135561553033,0.14297615493952615,0.7238247373142714,0.4804591026865256,0.3395313513583988,0.49505991484456524,0.13478633957251834,-0.03171570437213319,0.5658066735570102,-0.3569556381899415,0.06761777919278662,0.3041476718584505,0.008204497483107932,0.3015338034418969,0.10407738195776692,-0.15070779153718752,0.36219477246295845,0.34919144994917417,-0.5224411295487384,-0.6238702156201203,-0.2651032951903671,-0.17482815484971706,-0.7441767770765328,-0.45160377373342026,0.20861928722963896,1.2699707694359135,0.8623086313810776,-0.0803533215260763,-0.07812115747650454,0.3497161411234085,0.16004231478835487,0.40640934262058326,0.09431209131587759,-0.1260315895396662,0.2233663960603081,-0.3268672768456516,-0.01915022544295027,-0.30756555947799424,-0.3451819728175792,0.39000677934325106,-0.2564937821315152,-0.13645017500477266,-0.37213075655303357,0.24193818796172994,-0.556405599140571,0.05074655873248582,0.32780078710780747,-0.09470559807650372,0.3670178770879151,-0.06633520466125216,-0.19655413483817585,-0.07717720076461058,0.10417642535428699,0.2926762817767019,0.36042096510028315,0.2798652126725475,0.23893487430794577,0.263042585904616,-0.3914926276851399,-0.6762424584929135,-0.28042315668115475,-0.2666612695895986,-0.12233246034470177,0.20046441205394872,0.01512902279575662,0.377104090554015,-0.06270117915767322,-0.015033611132887849,0.17201903658367745,-0.050304071143458806,0.6315765393725764,0.4621771863058875,-0.15328387926529807,-0.7233246347568721,-0.23206615605060762,-0.31072622690362794,0.20224556122004572,-0.22846777236433066,0.3422756760310438,0.33583136647165795,-0.08392743591432766,0.4077282596881367,-0.37143538515703445,-0.19938658375452825,-0.057021758816615774,0.2586651445955346,0.3649149858153143,-0.09497240034375397,0.1468156092435598,-0.025941619854975683,-0.3407571237165372,0.428694997978478,0.09278056579750445,0.3460110895106608,-0.11180438217202616,0.18761303888139483,0.5103120482883632,-0.013519419101269867,0.39626261212194125,-0.5355029113328122,0.017454216957288996,0.06302581771012242,-0.11783243408453922,-0.1752853583835473,-0.08171829907824174,0.40405986855868237,0.19328723415619192,-0.6632946759252053,0.2529909576405137,0.07002229095728252,0.32678857203683276,0.086397974673587,-0.4128230227250509,-0.792425876037226,-0.018187171003879378,0.014724558705110786,0.3272276088268363,-0.15198288913895178,0.15146813712798615,-0.3987687976831499,0.553133113247442,0.43461046395909075,-0.3195556181116678,0.4032244100223897,0.14534701393923946,-0.11014436406078777,0.18563322573151284,-0.4804275002840338,-0.5259495689176863,-0.11595512275523472,-0.06355134092415514,-0.18372606375366232,-0.43804790810633315,0.3930051950326354,0.3164578006523601,0.7303385204830001,0.23887893848816263,0.16779094935594147,-0.21458043059056184,-0.03127006672433153,-0.1010880051637127,-0.2469057816114068,0.38003493336591915,0.22385043398959187,0.10983213879154252,-0.18023748954276653,0.5518455917900166,0.14287352115917307,0.2222036249247103,0.2457504576166434,0.2234850774434002,0.38954273197290684,0.3742078813481685,0.4009043364322314,0.332892271691422,0.12159438334923538,0.09974588055077643,0.06798557939391396,0.0018498474306468636,0.29333142581292926,0.2530373715171715,0.41459501928582354,0.2452866450638776,-0.04716305888425874,-0.23806599516475324,-0.5543022519409506,-0.21717319377041233,-0.2886875598631479,-0.4580965189092419,-0.30349111553406094,-0.18078507445694178,0.00011056637318208388,0.06592578604109417,0.31115666004129006,0.5630556756432546,0.14991780462761978,0.36063874807394075,0.11142382512769244,-0.1281799828625013,0.4777133025954886,-0.1943290718162987,0.1943425438483313,0.24423721873037776,-0.3669271479434101,-0.2552846138053443,0.42870904286088146,-0.1806276032117652,-0.40070656202867055,0.30447671620621203,0.038317974461809914,-0.030854997651020167,-0.48704880991324084,0.13773155752354121,-0.2728560998151595,0.34802808889047776,0.546577840296382,-0.05821580803267304,-0.08516528818968004,0.11356266034223936,0.002093653904489758,0.2731992409306701,-0.10417002992361256,0.347840193958722,0.31255069616051295,-0.3481688249961058,0.08827835175760379,-0.4064451999397552,0.2076659786181826,-0.1668211615992553,0.1856704754639169,-0.25411990316158795,0.11120378407527855,0.0010640939992951717,0.16081119083794157,0.4785960052809374,-0.4208180625636433,-0.6329768091583884,-0.5550608715881115,-0.38766348633311104,-0.7290931779901343,0.011612274928518513,-0.36834632138305995,-0.3721968156485091,0.05702208190733007,-0.44680848018226327,0.13403212569749762,-0.3146576945673369,-0.3765490563221897,-0.3247119805037009,0.2657521917597447,0.33679487804145514,0.2585928441330651,-0.039843568236953356,-0.41447418162731603,-0.22440395173527627,-0.07519029276057763,0.35434442891566603,-0.3827953334996892,-0.1457418426133508,0.009662864067623088,-0.18673134128255958,0.2852262209389526,0.15514327454272875,-0.038707815961409923,0.14622727840406366,-0.31766471302304056,0.27897403659055015,0.1389708650428396,-0.2318124915727188,0.2777912198805615,-0.26838660446231094,-0.2196843825133895,0.24596957803891886,0.2884153257154796,-0.2361043885385879,-0.08328349349963052,-0.0580860429052848,-0.43188764216372494,0.2703574746722671,-0.13991092429455138,-0.07282481381597744,-0.11680892660070727,-0.13096852270305082,0.2645239496518475,-0.42938156050884324,0.14209550093795253,-0.07145333654343029,-0.4220142643947571,0.08230413547807425,-0.28919200706041387,-0.0393181992558746,-0.28782732263819966,0.11751074342744298,0.027274577410753818,-0.017826827653793745,-0.043066568171032944,-0.08826898298111034,-0.3641724195537144,0.0782403805202538,-0.41465502045492353,-0.42303336124334234,-0.1830375490166912,-0.514303224812034,-0.060598508919366634,-0.40466224853496774,0.033704851069688055,0.10416139876409901,-0.08390370936181343,-0.33765030611530544,0.3245154025716959,0.16937070803534396,-0.4768963703311245,-0.33472455794645345,0.36474990040271493,0.28173300875598073,0.2316850716686746,-0.3110158096782291,-0.5782183553804724,-0.47675489584680775,-0.38321455035617075,-0.5164616125956926,-0.06991835776246964,0.0010019426664017706,-0.11142702141815823,-0.6082642388488649,-0.5823012486936515,-0.4008414485854738,-0.24999732562726049,-0.6474959850923485,0.11554477915718724,0.05590241249301872,0.45669102947236895,0.1578924170624329,-0.09078202159798411,-0.42695385418721055,-0.11408330002401965,0.362481688586052,-0.13064959969535747,0.11886041159096389,-0.23988905330401342,-0.3871071778979028,0.05946208259809011,-0.09744289908544157,0.3502719928329899,0.525620803540584,-0.22367603048082682,-0.04759314058750858,0.027875295665707435,0.0845016023458512,0.11645847943537944,-0.026675726478394137,-0.38666486094773034,0.047360078812803255,-0.018874112120587285,0.5521505931602703,0.07695438313453927,0.026532183513052268,-0.11923551271948707,0.35341481132394964,0.1993105237847549,0.2947232784962275,0.12645756451789855,0.22627082495298326,-0.4764614235744866,-0.4654536832361306,0.3565646697577241,0.399269530613174,0.47990785320535184,-0.19409208117926025,-0.4894085188367321,-0.1779329476687234,-0.17608670445344957,0.5682569511334685,0.6271205289536368,0.48298019119547225,-0.26985027100719283,-0.3119903580857848,-0.07049575530321509,-0.11246634135725671,0.11261968435536228,0.08158762665697093,-0.19656757494912044,0.3751543033154869,-0.32218803183687544,-0.5684802126812594,-0.05469607088614446,-0.05896910261693194,-0.36400831978705683,-0.30895854700257863,-0.34193013020036006,0.11109609969264454,0.25150765720446705,-0.1924159697678535,-0.1724693756477725,-0.45199663037128607,-0.28621450949663035,0.07819358788195002,0.4491846051253511,0.3555880353773442,0.20248568012062934,0.42119923813448545,-0.31434869685479244,0.10765370279143077,-0.32302981217243243,-0.33987771735024985,-0.21561033515810976,0.08950043359974573,-0.217844389017851,0.1440440161535375,0.34697877337915844,-0.16403132464286618,-0.3063352797213413,-0.40195388702273427,0.24674063851544548,0.37849916772654646,0.2205992661546688,-0.4456205668944205,0.4217285361898719,0.1696173623771987,-0.44772630496368854,-0.20010553139638085,-0.4830064664484302,-0.2673224635534826,-0.10456263083543943,0.4920346166850595,0.4507679348243046,0.3630033381183371,-0.3452527524683378,0.3811465154548924,0.1408333857919235,0.11199823164301302,-0.367934772996221,-0.22179576422107114,0.3316716296556499,0.17241641365124763,0.2600621113087431,0.5162921640425162,0.288447079163617,0.5122992704950812,0.07870002087023073,0.2619606526773885,-0.011934788782235516,0.24880337797770163,-0.3573066714626679,0.005128379654718115,-0.3212800851931047,0.27552487187818814,-0.015192948742148183,-0.3011670377491838,-0.030774326401591286~,0.06775637689198354,-0.11562385099214688,0.2363738651620895,0.4782923840701354,-0.27669816768908584,0.14580042955162456,-0.3061783805890572,-0.3192340208008775,0.014161646589387018,-0.19650270687133362,0.2569863810226761,-0.08045300385197722,0.2976738778926063,0.41812153688182524,-0.4329424126227528,-0.42692100198146016,-0.39769111375555033,0.20660181354157717,-0.23365697334762,-0.29323550236268026,-0.4358367106557287,-0.2531512134044973,0.40789969592583464,0.2775208566665017,0.36607875412417634,0.33287485096185965,-0.3395789046013753,-0.09401836984760541,0.060380135703304486,0.4730309228158577,0.3174831884542749,-0.32292304873199795,0.41358933344547105,0.2841421611457935,-0.043456569251753785,-0.053729626171154656,0.08590245579615843,0.3946568344487582,0.40848689250279685,0.148134175453092,-0.3677379952746339,0.4744579783252937,0.4914321258123061,0.2788795514566882,-0.15414186374661754,0.08064348334243808,0.2605339352993134,0.027636119521163,-0.45205796576447166,0.12569171670485998,0.0171270675272049,0.08161832410078357,-0.1522323654388605,0.40897949979977377,0.08644079522833865,0.5256012894181804,-0.4723536883558187,0.40119457811963055,-0.0071867484478166845,0.2686421845618347,0.27270686129284627,-0.06327519309166302,0.27851628985860893,0.34858425544322025,0.019850590666264073,-0.3754404768107884,0.25369758207127713,0.048786943725483416,-0.008642037008161576,0.052371017104848,0.31476647094070764,0.3913020370003599,0.22646435493204015,0.6586042499641233,0.11132789486135586,-0.3613076378440605,-0.3313873703898388,-0.06781623423593591,-0.2366832701153409,0.02372592303207721,-0.07286537090164032,0.3093669496382862,0.302229550367084,0.11521177526479871,0.12705701759067797,-0.10163693457075972,0.05260637679142009,-0.33117834363013465,0.3159814356643779,-0.35603873618685333,-0.26590425605137147,0.07257559688737789,-0.0475494216609312,-0.32121587644544863,0.3856997434759616,-0.08996165986471424,-0.6175375173972338,-0.03103442287561952,0.7960768172227093,0.7694880911726342,-0.2976803984023277,0.5372086332465238,0.09992355109909588,0.6889775599356924,0.08340860692903755,-0.4766970532357554,-0.1976659533816578,0.2180826235186854,-0.2943314925789485,-0.3869613293152279,0.3005965850387951,-0.26213487107111544,0.08857688927273281,0.15505960259862464,-0.050190645706270354,0.4660347218696089,0.13580668955136682,-0.18778832368656137,-0.4241213885602404,-0.6538995202779971,-0.9486400372240632,-0.22959922876974337,-0.4385026399696154,-0.25206428103501954,-0.3438727565645675,0.9626410017132432,0.6079188143456262,0.2653130043830671,0.43828534591732365,0.42229819130176705,0.4437526878237136,-0.4324115006473447,-0.4272604559976017,0.12468550843466522,-0.0095329954429592,0.00552022974349204,-0.2670253037896597,0.5274163858943733,0.34843420470390046,-0.09579291551455425,-0.025388857603499126,0.17418425354975522,-0.013948487845038816,-0.2751698560656703,0.09277465820945446,-0.2990870970527569,-0.552222829467218,-1.2087323927796327,-1.2847747962520408,-0.08046635564787787,0.10968371534497612,0.2156569507101878,-0.23115606563723626,0.10148909222780002,0.14199272310265276,-0.6550499345281675,-0.09637766037273891,-0.06464020532083675,1.1077996663901801,-0.28344603207974167,-0.0842387500454833,0.7035506257954406,0.5406525175256575,0.28314634721829657,0.028071630583613533,-0.3795007466967889,-0.006881179957943983,0.04261780269940328,0.1621389580824795,0.5081261704725077,-0.359938574872176,-0.34074603496299294,0.1799429292457249,-0.2092106033263781,-0.8847722259206111,-0.35144302015177614,-0.4893205555377805,-0.44617239440182926,0.2009081897086214,0.6321753020351888,-0.5491763541186486,0.03041457054813044,-0.09686341481198074,0.0376192344666046,0.04613389293198051,-0.491340104216368,-0.07290267489955624,0.6888251462229176,0.13716727036793905,-0.5599024027161669,0.9918928742482103,-0.061739669502138834,1.0911721293284933,-0.34179554735534307,-0.12472331749444772,-0.08640675603139063,0.22112765186864053,0.4721835033720307,-0.34411409243512875,-0.05030606311438628,-0.34932061548485127,-0.5546930615167218,-0.46954393508344083,0.3646514524057858,-0.9339306164176474,-0.09945400107470254,1.811482957703768,0.16553923407566568,0.09307315476070505,0.37181639109922965,0.009467257599069707,0.9237000579979218,0.6291799204992323,-0.25953522722124844,0.47784153056638334,-0.04346561033178974,0.7513336000337276,-0.40924259658674744,0.5209040620083712,-0.020777002297517843,-0.23301202841441757,-0.327206672983618,0.5316979875957074,0.2993741378712152,-0.10434085593382873,0.1673940146244294,0.478511597675207,0.24296784261404844,-1.372956493903134,0.09207544263161631,0.1998689032204953,0.07845632700946804,-0.025075507286845947,0.41651346381339077,-1.068549452635559,0.6842026616796014,0.46156743806045014,-0.2558207486857674,0.08720439733644544,-0.23768823207631737,-0.29032030972757517,0.1179526517977761,-0.16151805757360582,0.42855135067717753,0.26888471698100297,0.5217628137595344,-0.30579672463031526,0.23650332360577048,0.014699669340422702,-0.10762824626675685,-0.2717606669182071,0.16988119067569518,0.04993553991552751,0.30289414154123234,-0.39440571052937623,-0.14567169635352986,-0.8748270655161035,-0.16037369057467576,0.12439607653493667,-0.009662422660899218,0.07602269515315015,0.30494228992845523,-0.4063283172292688,1.5087570493457463,0.8821523965384495,-1.8124050076127598,-0.9441833426304059,-0.48758962085970065,-0.2526938791441015,-0.7962174917410592,-0.7571429956330124,-0.8840739734625632,-0.8934268149342447,-0.09667715032396829,0.3543060077905972,-0.42600407624106185,0.1938742588381866,-0.026128949457141643,-0.3014836109408521,0.2178017597130775,0.3080157738945621,-0.44057431686914617,0.2429161631161459,-0.4431200453904897,-0.407729485877774,-0.02720519187307807,-0.4097312080424932,-0.5216817743728205,0.13760381565922963,0.6570172642723563,0.36827992520346214,-0.054099490300203626,0.9549016180396026,-0.6051455972550415,-1.066612829392578,-1.497500800314591,-0.19667982086173277,-0.38576152241904355,-0.9283482543505275,-1.1650297862127847,-0.9285588762065715,-1.158420793819955,-1.717285035031161,-1.4843027990594648,-0.7056934151559477,-0.16123477923248694,0.29919348056100525,0.26448826958941896,0.0521749912043774,-0.24554228729321487,-0.3954355515392908,-0.33353348572819297,0.15740893260325245,0.2487482579492022,-0.0034381079230430254,-0.20280813271239553,-0.4392135865800511,-0.1560794908515118,-0.11895082008349565,0.14718783739676564,0.21642599955531042,-0.23455430256925308,0.18250267097419964,-0.4602597120572016,-0.1419510746472165,0.28598333939804077,0.0023383838370652135,0.5971102974962831,-1.0781786614402347,-1.1342906042862544,-1.809533731787184,-1.5223353159050186,-0.5578000194804537,-0.006122262871329048,-0.25277517389562454,-0.09631805792959394,0.4727533966791967,-0.31588685831384666,-0.23346140372550828,0.2868354282823614,-0.02802319474467339,0.25868071164785367,0.2941451687114452,-0.1501228469545314,-0.21040572071514776,0.42786447799528476,0.6010975285523539,0.6367983808561863,0.16292293603635027,-0.6263549651654183,-0.04694635979091037,0.11311547509467576,-0.40357659322457795,-0.5878036122090093,-0.07613880814354133,0.22041143917602016,-0.19236618884533865,-0.22473754837392904,-0.4351436439289307,-0.6281175909663923,-0.6288960485246363,0.1505760910036025,-0.36036464082818476,-0.1629320652891791,-0.12108638713602425,0.33839639973376023,-0.1849145601250083,-0.33683504608477643,0.7514712207154326,0.5995006278686336,0.3373315634421478,0.35025598455393536,0.17459040461837066,-0.498298980697244,0.2664954925632531,0.9561526236247336,0.12349657993769157,-0.23661019621235377,-0.20977697455961444,-0.1503484778978601,-0.8438836391981065,0.2617895338259189,0.3593794576491042,0.3599689051299582,-1.053567702080983,0.0024294802184471605,-0.6578355638213024,-0.08866248658747597,-0.02210870963085332,-0.32945869696074404,0.3578919681088592,-0.37818429009323595,0.3048397488279093,0.24954852315085702,-0.33259850446238504,0.3492218885486433,-0.055747316596623006,0.23407564722413857,0.0008972824174859873,0.4275266572661173,-0.0660335532574112,-0.2744614812075375,0.31770696304150264,-0.3093330120807929,-0.5473252986858947,-0.025004439634512973,-0.08082326636482191,0.277696866824808,-0.22607714384516703,-0.8307792125919589,-0.09513656558223704,-0.3703352383728277,0.4952561322813449,0.02942012709912296,0.5587313559151608,-0.03444689859944893,-0.26496336901144285,-0.24778057157842165,0.3793039474602811,0.3913253956577494,0.3149966660524417,-0.49505738012500455,-0.4523849767672658,-0.1158023840463475,-0.8082101548109402,-0.3908850419599479,-0.39307157136150067,-0.09980379085002815,0.4160059248547273,0.0747993713796432,0.4547162721233902,0.0300333961009876,0.7644037607808369,-0.24128158452562729,-0.7000679212109998,-1.36389662574257,0.1664950197205946,0.2638132826411131,-0.3366151306182912,0.23289273120770226,-0.06703322688533042,1.1583518385742242,-0.0938659119989705,-0.34810207919927266,0.2051748913104888,0.1550537728462948,-0.12760381362589468,0.2236259582041644,0.5153448161822738,0.2887005577333373,0.3542315186690676,0.38466916551055325,-0.6444251317957086,-0.06231306017307239,-0.4553248941926009,-0.16157986615172978,0.6877371756535515,-0.38525941972071853,0.31615475594256365,0.014758948877648875,0.3336883559357942,0.12827441167693754,-0.12436096256128819,-0.9730493976739407,0.8970272455026399,0.2584121456410083,-0.05801424788306516,0.2715051976622727,-0.051780851732216686,-0.08206751666210602,0.34522470403486977,0.3842092326270195,-0.14055593950168163,-0.0033511340902758753,-0.3732895812683003,0.1439583593562422,-0.2922347632289247,-0.17081411261120844,-0.05307413185214168,0.2482716533137493,-0.209274592739547,-0.037810245251693415,-0.265251732722124,-0.5587903578135759,-0.37806503195342445,-0.24388027130976514,0.12228573768624675,-0.45481154321791534,0.8814094514712854,-0.008325702546411901,-0.9104269196379714,-0.35675868155293705,0.022585967368554106,-0.13958664093533765,0.41129462475551404,1.401432203984035,-0.49550517555310136,-0.35171962544599283,0.324273666986719,-0.1871929646489036,0.10388567803145092,0.12586765924472418,-0.21374358276889896,-0.33810066975295916,0.0015502483807409376,-0.2766823563133853,0.2167020412158781,0.22558888523965953,0.28331547583101324,0.13016971267196223,-0.05401574562073814,-0.5369531260626837,0.481281818446689,-0.20166657592388898,0.5049182429355256,-0.6097752361065418,-0.5674395018248042,-0.4686697821342991,-0.7272107530323121,-0.8230212961303895,0.44255402258056564,0.2274262179182114,0.5618577011844894,-0.9928699804716998,0.6508741826220293,0.7801526632140912,0.4353889372868067,-0.5134016387992614,0.5053392526408919,0.005013321907551716,0.2353700067978331,0.37113615452810966,0.4841577538512194,0.29483170524264524,0.06752447898631914,-0.06787593019439592,-0.41442308301512015,-0.14014306346892505,0.21819078194541083,0.35762005455356183,-0.2289809290556465,-0.5875141455589104,-0.7433815458395387,0.19472555993431298,0.3353692158364788,-0.0012996426340601682,0.4596813113216729,-0.3094348232051425,-0.4063758054146587,0.6622676942311674,0.18257355174281037,-0.055524301491047534,-0.7023796494657196,0.4169257858693502,-0.017841530556925774,0.08462678990440216,0.341686248143864,-0.16454141662697716,0.06320538211365789,-0.03131631975498854,0.4135008853291079,0.07826947803332596,0.2938367105926691,0.13128287605572944,0.30078828875862396,0.9208004576834278,-0.06027516252265363,-0.23325657347246126,0.11376543286558825,0.5592745581433981,-0.4649587912792796,-0.17791020725517606,0.5995483078182464,-0.015852171292289108,-0.4966119149695977,0.06198735404106619,-0.4109730821836559,0.2888823738100603,0.37675144641357816,0.4963326601153125,0.13452648650796276,0.26373532494738394,-0.015478406388068107,0.03723692990041048,0.7999730513125943,0.10916587984073513,0.5009783365214324,0.360697302531578,-0.04447225696449024,0.3148218016160965,0.28632895209287024,0.07960266536329375,0.3839402591281071,0.03636703354452302,-0.3721812866057319,0.08394374230139325,-0.3016452592890432,-0.07188119143299204,0.3698961717254203,-0.01504293721222336,0.29092428925991504,-0.26072124383444734,0.9811795016957423,0.8203394604438566,-0.23593294182640748,-0.12053399493527928,0.45353068704657407,0.30224016646488866,0.25862308798195427,0.4387261361446975,0.4896645112509356,0.37370070883449946,0.29172417646263027,-0.2058083188425834,0.06374968409279108,0.39810265720005955,-0.2601730816796023,-0.06983227452373354,0.306277777946815,-0.4955886397523906,0.2512197369297783,0.28175880203784226,0.5693611389380668,-0.34804978488020943,-0.4833481175105346,0.27335778403592004,0.0651188823762754,0.49126222530877744,-0.05709697987327993,0.16157999963761813,-0.24303075735071375,0.20597303247690318,0.6319753319823231,-0.2188232857347528,0.030468797439491265,-0.03818880300874505,-0.9753639357690027,-0.4485100415070276,0.24921791208049035,0.18772058596044933,-0.694403655291487,-0.22600218325053223,-0.298818645571214,-0.22625519078563625,-0.33324780401424337,-0.41632548892972543,-0.4459456394402062,-0.0030922648375868215,-0.4780047536312832,0.8168009302885231,0.7085517455019006,0.4160054296347595,0.43187557004916194,0.07916212111342184,-0.17432565823296328,0.1633175786803473,-0.30298185033964553,0.5235357758305671,0.1204633284024691,-0.12375286287036152,0.4583030508041054,0.03388372125515816,-0.17955399271573177,1.0823170709566463,0.37189933073190806,-0.3534805213467358,0.7158762142276399,-0.044041356524139305,0.10312388566477229,-0.39494362720943016,-0.3026719139486033,-0.45968188818183076,-0.20712614606775312,-0.22088575659811324,-0.38485388236200563,0.028382701033586446,-0.30040905851552213,-0.330640708302388,0.24465702927381391,-0.17074231190789824,0.1962198452807102,-0.35977315821728234,0.05716965302898233,0.11543543920215245,-0.013382118209307308,0.6300399316871952,0.30178464811200234,0.688482123082512,0.11138755086420979,0.6547166783747426,0.6768856407788099,-0.2887801726166176,-0.33443397666113744,0.07746589236089256,0.2488967523480042,0.09644308710335009,-0.28258029751084,-0.012585192759911053,-0.2005923253978131,0.253367678176755,0.2106019026296452,-0.3126001777076969,-0.20258369807804008,0.33537879602858967,-0.2081702043784162,0.4085539151280799,0.2010382442081494,0.21443387261783037,0.25114341522957495,0.5338559547544999,0.6160532505978354,0.7258654671520502,0.5837276882799445,-0.681051034902508,-0.01014338910716487,0.04634192716262448,0.24631489855420213,-0.3468455034950514,0.5331513160199607,-0.4314070429522179,-0.10519765928298859,0.004072577681803905,0.9826776060303497,-0.03221878935409153,0.5213814109835576,-0.0065382358112679876,0.47809838115025666,-0.4516713205569315,0.47944637353382136,0.13839372950100423,0.41763132315685125,-0.24116903944607485,-0.347099293162618,-0.36993243842834767,-0.24766254275750374,0.3418397847341677,-0.43354370540533893,0.1273880168959315,0.22879226209747666,0.2379898740018118,0.11858998603220691,0.13209342429564264,0.8359380113800902,0.4864052607234786,0.2720007756743384,0.23693829358307925,-0.05791726174942893,0.087932225292624,0.4454086809205042,-0.2635529689153265,-0.03529592738908122,-0.4600823735622288,-0.40213984551118814,-0.37329613669557316,0.07556256593415377,-0.22029729845651255,-0.34677256910164633,-0.3810071833863432,0.2560678832684592,-0.3587902707238746,-0.11911783559852988,-0.11298818374207088,-0.4647457589942763,0.5080007085990652,0.4897842105725391,-0.29354965147622725,-0.33611328964297543,-0.21741691156732998,-0.0924214858589942,0.08481567611186917,-0.08978664227024741,0.42622774526961776,-0.3740596172578469,0.38447866357435473,-0.4570714257879507,0.4360463788488067,-0.013914857398103438,0.05259496221397456,-0.3743103033420637,0.4605126372231639,0.5181906777348265,-0.27100280441965696,0.463216427430973,-0.40698507149713536~,0.26492449374621957,0.15770754831107792,-0.30647678001527173,-0.4560790703727528,0.026009673726477944,-0.03010405856299387,-0.16538598768442225,0.15485850854402017,-0.18957539180478167,0.01292112895271391,-0.5107582774340699,-0.10702841775947056,0.14131309618410426,0.23977008196764396,-0.21235970487352418,0.18478193614047334,-0.46501233867275055,0.28619351317195946,-0.10213624559912468,-0.24208694692785226,0.3542723672406381,0.26726599671338264,0.30776894271485694,-0.328262576615091,-0.0829073065655942,-0.17550537007215983,0.40403483046195804,0.13998593463214426,-0.15024597091605946,0.2377410979699467,-0.039448090258418146,0.14249567206199754,-0.19676168706802769,-0.16430138615713388,0.29134042612688726,-0.2502157167811218,0.28849036485515234,-0.1748259900889045,0.22519598204873442,0.020194974638685945,0.3648697496242577,-0.34161401434697675,-0.24505733316269523,-0.595003143411837,-0.0010208659102562954,-0.4705883018213249,0.13118256984672383,-0.01567022310143208,-0.39337174178001577,0.41236930445614145,0.5413046459620823,0.11494748575874975,-0.3205321755757667,0.20611151857853294,-0.02245479306875125,-0.06839043861459557,-0.3732472613215541,-0.19230406830373514,0.15638513110399568,-0.08201530203687062,-0.5068172210840163,-0.2779191980121715,-0.18357553471092394,-0.29762983265772713,0.1350692552173538,-0.127632607865519,1.096179021271245,0.3527339794391801,0.7457250184811086,0.08688551172126834,0.02726950032903839,-0.03226261732566011,-0.39819840418046437,-0.16626127663822415,0.6197398335257481,0.36675004929314375,0.6326447325194385,0.12536652067881923,0.529276165509936,0.5472725903483171,-0.41656204860106816,0.22287584714005454,-0.050968913104177026,-0.3530755908071616,0.22246498131502718,0.4025693518868911,0.015774971380222175,-0.1152968758179302,0.28256859677021817,0.2484582963308407,0.14611209870879746,-0.45697103351305984,-0.1327315317060089,0.28266068048090776,-0.17481598482157973,-0.075141717426863,0.2555333963317175,-0.4377857645482181,0.19642849950296157,0.05038430474656154,-0.014188531842241333,0.18521715326542382,0.29513181983365666,0.08971357472926039,0.7236987765580148,0.4151988681659226,0.4428136471137895,0.3774871243756606,-0.20919472320584348,-0.3526966091039998,-0.13058669097615888,-0.40863801917474646,-0.06960189343348738,0.2645335936901186,-0.4866133400301773,-0.34692634330164224,0.09400404806096148,0.09208428918230074,-0.25144862935932233,0.3829808668493316,-0.29310642930589886,-0.9928685073776626,-0.5290529582716198,0.3537880386966498,0.2984461345132282,-0.4260454678309563,-0.4625498792889669,-0.2706646905740512,-0.17108296494152295,-0.28084672249709736,-0.5347939877016749,0.5009526048753452,0.4058933486193691,-0.07931645906467856,0.4846992713862911,0.40471331575118946,-0.6017438830869094,-0.18075989612056886,-0.017782970652173494,-0.43742698801367175,-0.31516412084031914,0.011658368637584697,-0.22256185021449376,-0.11276557611515951,-0.016478504286836993,0.02250892513225005,0.3325944784932531,0.5698853081529046,-0.2765065326770584,0.4720625682862994,0.2084052292480163,0.2074588821601485,-0.0895142813297424,-0.1405045068092482,-0.4672137146102101,0.20288296087958324,-0.5179058948272455,0.07185664029004864,-0.5861058061146021,0.13591138597746585,0.09080877288708365,-1.1533846710661613,-0.0400559499706908,0.21715947762180687,-0.26824759387369645,-0.0025309727541064212,-0.5653352468571722,-0.306835670890681,-0.013310790096248285,-0.3769388078510416,0.1644577409222714,-0.7660711980492232,-0.14188289348385577,-0.19807829432660898,-0.3822379803547767,0.9177870401550328,0.7216722108837732,-0.4063256989644898,0.7139728216822177,-0.24157026504543022,0.4745225737848678,-0.33709631021190384,1.0210144224447177,-0.7984871104356176,0.6448866379929495,0.8686812922099071,-0.31731450030726815,-0.18242272181163333,-0.2364291271692556,0.14780048940805268,0.36727726158344914,-0.43138402916935237,0.2715299454540029,0.24768503870597633,-0.523278856932279,-0.34797059510180534,0.19656437631022652,0.22113259296882035,-0.5145483339823677,-0.007660071947748465,-1.1235926115028616,-0.16736039987033513,-0.717578544268465,0.07207712986443869,-0.2290022011411167,-0.3020331164689749,0.03620821161211134,0.43792528096395983,-0.7252000714594891,0.49418275700664627,0.275635113154328,-0.8549710588569976,0.2578376165868433,-0.3776420243748568,0.5671556142771226,-0.569766787605553,-0.02000968094704418,0.03865880261383472,-0.1193305911812084,0.5587066082692658,0.4512004717151108,0.3107667913115565,-0.2974055295664067,0.17986014523454422,0.06116316960506796,-0.4558973718340005,-0.5554792088210389,0.04538789121925031,-0.8742846725765323,-0.2711278310491846,-0.688216931545545,-0.22460440759093198,-0.24800496762136165,0.3094027446483493,-0.6480464189109701,0.16168133360799916,-0.006022062749149649,-1.2194013725404318,-0.42345996624531573,0.6882940887236821,0.42904433837886885,0.17233345119960217,-0.3462477392982187,-0.2013720093147892,-0.09474146764603562,-0.2994281046648706,0.18797613167603347,0.5080396882036093,0.6113698150254034,0.27942483015868036,0.10978943734901911,-0.368308397174157,-0.45611936679024107,-0.5187265770483124,0.46672548414423165,-0.3002029272965099,0.1310298293497405,-0.010008879963297893,-0.45171194838790135,-0.3369269016345094,-0.23347301491738154,-0.2140410976858776,0.33465384029767775,0.32664589804126276,0.45819102950598906,-0.17450759542052718,-0.011229073887913948,1.0485496689665277,-0.11683315186009254,-0.5526927451166079,0.2429866809593527,0.1645644491094347,-0.1301970821718397,0.1951867983474026,-0.5965981185055079,-0.2173433415711975,0.4089519584372388,0.26669251699222685,-0.6927794935349525,0.07124469291962726,0.08526613256536249,0.15977873586812255,0.13122114302534701,0.45009513070774315,0.2928646360637326,-0.2462874534384561,-0.6090089209958888,-0.5398392504353311,-0.526208408271803,-0.2690973539571348,-0.701561232158523,-0.2037034453485955,0.3563949416755044,0.6679221867910083,-0.08345169344817438,-0.2101852275646239,0.4179661243136914,-0.3867850172460221,-0.25030521158549335,0.19073563672703975,-0.38675508163394917,-0.5823379112958041,-0.6858038694696061,0.17584583306124735,0.8572873793761865,0.08718362237375635,-0.5978420723710991,0.28862652081145873,-0.3411643466391563,0.08320906171909744,-0.45080938221073813,0.15297256614929572,-0.0490080552424285,0.10335879575353117,0.15422268225370284,0.055264528549181326,0.5280651180868768,0.3129031896756735,0.7862704507990965,-0.5756041235492249,1.2683297666321673,0.1784988896644692,-0.8871714136014939,-0.026416218764470645,-0.36681018980626595,0.16308499278054556,-0.40658779422727936,-0.4986280303442149,-0.37382105677361305,-0.40120831729557965,-0.586776611574288,0.22133849956014576,0.21452571734133927,0.24243004539424012,0.13616052939785347,-0.34963338806055744,0.15845779834145518,-0.3276880489807176,0.47601093638693476,0.357488095217606,0.599758901857837,1.1030456055928528,2.087805956065009,1.7990785605502329,0.9762184804267194,0.8973157784371509,0.03669787163808352,1.125194636729316,0.302614356486732,-0.3279342045032564,0.00541443002736193,-0.24914697312998918,0.36926152781797156,-0.5662411738259563,-0.0428918645042312,-0.8967861603150962,0.7298455975621034,0.26273842682255893,0.18072222978755906,0.4934523480287601,-0.20824366386078758,-0.7380442451161164,-0.035300003613317144,0.25706400073782704,0.1278189507302,0.08758659979727301,0.18597727244284773,-0.41281569028029413,0.9356988662419202,1.93788339593597,1.9818096985631728,1.0092978881776906,0.5085863855021041,0.3671757915985066,1.1535608642434487,0.10192938275212117,-0.216868631930708,-0.2560085101669797,-1.0034565814766914,-0.4968645376313213,0.19933118397743982,-0.4899826410885165,0.03065127201306456,0.07298472934692073,-0.1587326510800561,0.22700342386621533,0.49597697864989493,0.26755384632778584,-0.5930955717584386,-0.3756659454931632,-0.42909020536654574,-0.22002068048468398,0.10303823236870485,-0.17905588720455787,-0.336546485808828,0.22436970494481395,-0.485534421536711,0.7773249345915016,-0.15055273834685964,0.5424197280168401,0.5309866620903705,0.044966065640650706,0.3411298499365334,-0.3080303503814266,-0.24518377908250247,-0.7840503161786865,-0.8508735054203771,-0.1345191420725034,0.0156420211351338,0.8185486642006932,0.7249903964867812,-0.3818507435684437,0.3892918974418669,-0.3581469933243833,0.5297718332622298,-0.354247788351629,-0.22527535641846266,-0.7730489041780333,-0.8531483151346398,0.3960563048189851,-0.4494235235299078,0.08477249899936463,0.17114287502827416,-0.23271889502061396,-1.2190478420483002,-0.3290654817999589,-1.2460186269629878,0.6011937401003704,-0.32755514272424385,0.5714784911135107,0.20568965507395098,0.3131219836345503,0.00836533128072974,-0.8531337900148134,-0.24015021938210915,-0.3751500734308243,0.1692241798582444,-0.2888999988951524,-0.7604673209579575,-0.2042726475494434,-0.5196787437086858,-0.15070426164109893,-0.09558337449438599,0.45938521190986487,0.05928584852726105,-0.49559626457521677,-0.020485743947174027,-0.6899700518068457,0.08608728031796471,-0.13126226680193095,0.333998024609722,-0.7026185409921382,-0.256463832870864,-0.3182369910839146,-0.6164692190467759,0.031616699722458855,-0.24058444621641187,0.32416112351961285,0.17376317441911796,0.23478249664731865,-1.300975507602135,-0.4374556947618268,-0.3868791087942592,-0.453835157131768,0.5187152152304471,-0.5687392650520683,0.42318993635345664,0.2692299783007813,0.9930832763086792,-0.29950528927020986,-0.08277534556126064,-0.14917738432399405,0.013923955912324747,0.009294310019190061,-0.7019060234435869,-0.4974773225074293,0.3868520502445341,-0.12175711657631604,0.011749594850766026,0.29514098699063074,-0.5281854324460873,-0.19199765935902496,0.5059936928705968,-0.022116818581392177,-0.8684884777388908,0.017723089923111522,0.05842962559519592,0.004873156205861996,-0.6765414233260137,0.14234994986438573,-1.0848542748642616,0.24612860846797813,-0.0557381633903013,1.0008082825178193,-0.811735259800649,0.19539708051834256,0.11229438612377261,-0.5633510676903525,-0.23395016829821202,0.335887463775149,0.48816448135759277,-0.9929658263165978,-0.12202477084692798,-0.08244725987804923,0.1483570685609923,-0.27985058124685075,-0.4062036536903101,0.5873629933976411,0.15471016836058574,-0.4196984093990844,-0.0031077293771493777,-0.6704681668745006,-0.07897453983143167,0.39616876867230894,-0.4376394092335123,0.036975201457858015,0.9183989940952098,0.07771902707627708,0.14626121014368829,-0.3804885594661833,-0.25179994020081503,-0.20139697955813374,0.1483337331982271,-0.2390626050805,-0.37506156858612766,0.8051799079368921,-0.9472124171804389,-0.3462359402223727,-0.8070540408554314,-1.199489262935532,-0.42076462046426405,-0.16642015686673303,-0.13725712607538962,0.2940045935021292,-0.4922281369140334,0.2874984844698714,0.4306231748393683,0.371309663524637,0.40820158026240383,-0.3761341280241717,0.37577055313720065,-0.48039398792503146,-0.28658822804753226,0.06151339324302304,0.5591849468224015,-0.020152672204309285,0.615742009056536,-0.11517458861703518,0.32406142359084306,-0.40984039505281683,-0.13243715892247376,0.3274685148447689,0.3738282816042435,-0.029174927205876333,-1.408251626894879,-0.3187912747725118,-0.7649221692367114,-0.4504232046647487,-0.7369233909272432,0.28401900658279466,0.2414250659849541,-0.34662190821186756,-0.6564507412036508,-0.18434530352202372,0.17181475516327016,-0.16274614392904396,-0.6941349145084946,-0.6693390869646764,0.7118517819026764,-0.3893837710402465,0.07726278192249472,-0.07064486608227946,-0.11897437261188243,0.4328349039628725,0.8039131814487939,0.18550823880540276,0.4688207835438299,1.0769938517923883,-0.7316369927280165,-0.025641904191106436,0.22131289620855338,-0.07147273827064747,-0.5438683138099288,-0.07881719481218646,-0.42172590581011815,-0.20635621463683756,-0.5745040993413557,0.25771334210334934,0.4129520657737274,0.0209131897755659,-0.05708501697078893,-0.270357227770075,-0.5300465951064766,-0.311673619186014,-0.3993931822276022,-0.22035633436591534,-0.14615901356693053,-0.06690592398045443,-0.1658735608338937,-0.23692206736470656,0.6636315890638834,-0.11366516164557386,-0.6957694508848855,0.217369512607113,-0.1128679479710075,-0.18072576891167158,0.4932282627412351,-0.22771952043312285,0.0947196836665417,-0.181984956949311,0.1957174697064402,-0.21662202472017916,-0.5362136147368961,-0.5575471934339493,-0.38702374776703563,-0.5024547969051696,0.06294974642368181,0.09138717202513107,-0.35515745372765917,-0.16171268842571881,-0.16867583886366072,-0.0688711782171496,0.3315594293158003,-0.6915820602778874,-0.1830846255198464,-0.15222699559470418,0.3399943093429517,0.06669035531517996,0.9002415272539912,0.13244299925098918,0.13485898171911667,-0.058030471507396625,0.8352048595864826,-0.3677075733837974,-0.12098387163249813,0.6159093097751975,-0.2795768125880481,-0.3654126425865667,-0.023530871802087874,0.13794722660381728,-0.36023770813012007,0.11052825846092852,-0.10614847717152527,0.44010136343591727,0.3903891689623534,-0.22451676628528028,-0.22435748505263417,0.3467995507239487,-0.4895176497844075,-0.3474578854818503,0.1828471448282391,0.3727058106294996,-0.4254829314028875,0.3973009767541038,0.20640021141986142,-0.023436892083222298,-0.6822469846564747,-0.9606244643340207,0.3573348906965162,-0.3432015185282014,-0.5037959727428646,-0.389191919794348,0.020904320838510643,0.2710140698894707,0.1365437778704813,-0.5411333214113099,-0.3863361723938463,-0.2992380076524465,0.008674113503240573,-0.11677889200632746,0.04801978506034717,0.37698040040401565,0.03152845721463766,0.028893837720709428,-0.10687736064197188,-0.15270898110607814,0.15700055453745373,0.5018468508905279,-0.37014035471987555,-0.9425881676483578,0.23922254560036207,0.8787892352542449,0.03261910106604617,-0.013402938017927761,0.17070386563945397,0.43242815154608444,0.05373266985588984,-0.18894110251328894,0.17506203732939876,-0.043022343002440164,0.04658801715304901,0.12619466359204623,-0.05399086431746233,0.08315399094725072,-0.23149846745991093,0.2583692725436986,0.06256745916103333,0.3513702908636046,0.3163810757818962,0.0381217389219262,-0.09126955685766966,0.12596263902034133,-0.2896300295688096,-0.3516379839427143,0.2257441617604078,0.09714528486956302,-0.1971215931565574,0.22949997643704326,0.421027171205555,0.4173982969294519,-0.28253269635670175,0.2832109473793178,0.016494681098265202,0.03847817067223244,0.6817011620912261,0.015063980951646965,0.11961726188909118,0.8102216200417984,0.8029512490116929,-0.04095077875390627,0.5213492659209048,0.2505390325875213,0.2843425436570687,0.4808535190563454,0.09077258637928322,0.016506380493650864,-0.15529409892902485,-0.3508464606321891,-0.045175165554045695,0.1271587237391536,-0.45215843987332477,-0.3900607954033287,-0.3587473934813905,0.1657155246786347,-0.314783189672586,0.18685656427788133,0.5995471573360062,0.5145756237857526,0.041123457135256836,0.29957585359423083,0.9716640806057555,0.3733097752153521,-0.03649919504255313,0.34727701774669173,0.5455584754209468,0.38341860683471213,0.10422807570213728,-0.1941969251876154,0.5448575189206225,0.027070772151530018,-0.3799073684853548,-0.4355327080987111,0.38643104668873035,0.34435882009815144,0.1771969759373443,-0.05353974806728635,-0.23331105062776736,0.15663946448703325,0.20764287461893838,0.19609391673775523,0.014306657374343687,0.46179299032985843,-0.47219774011522775,-0.3487455231411482,-0.16044990061366127,-0.3420474048172552,0.3961089739745372,0.225402791917787,-0.2850539563342079,0.42448697603348307,0.24743896248617964,0.19225568992335926,-0.3517845611316951,-0.18655942927868394,-0.11120695771411745,-0.3589595988354884,-0.4876450363795505,-0.06332434791441847,0.24054924975625966,0.36028817729449075,-0.24728154469431718,0.08505234419511479,-0.40702524778409993,-0.24744671761068704~,-0.2790486620038527,0.08107618654192386,0.12232088005804828,0.27732822626325704,0.02932072353261046,0.22753540669645966,-0.43181374971351216,0.3673257448865548,-0.024506745907566987,0.4882107742907469,-0.2847368917203673,-0.503866616997225,0.4150722977907024,0.15761258684468074,0.20240211261214497,-0.3602989711072394,-0.06861841510488081,0.022794716223404555,-0.2282410669576853,0.0967862925415244,-0.0014205541290112065,-0.22220277375246744,0.01584535497788306,-0.1695767994206393,-0.025082908535240003,-0.46550014085348423,0.1112918052364277,-0.4055386836421284,0.13107991844881972,-0.07174595813451531,0.1701623368649956,-0.42696784043860425,-0.11375492686422745,-0.14086416818968464,-0.31610494478830453,-0.20230367714275913,-0.3035266013273589,0.1251970536441934,-0.3423849868487836,-0.25456263356323666,-0.009801903077970521,0.04811232813033794,0.44764291344960855,0.08329193965197838,-0.4930217101952455,-0.027840693402923274,-0.03853512493567547,-0.4902959456037196,-0.43383944448430917,-0.4062471897114787,0.2173976249842423,-0.011987930621029992,-0.03196807447931512,-0.03308465731429951,0.0038237276953191133,-0.350080384629077,-0.4562194217409654,-0.14569328809650028,0.18504781560327363,0.2487570036812189,0.3914310161135483,0.12332118690785501,-0.418916154029637,-0.033602609625179615,-0.05302124581484783,0.013074666574424172,-0.13471038207012434,-0.20487024437909263,-0.3157012495012839,0.45353369590490666,0.1648919039965284,0.810434693766955,0.4026576294664902,0.12663804369791248,0.009909931460030327,0.029478217533589583,0.3441980693757417,-0.05243834437294836,-0.027709113844122148,0.20968234799057386,-0.04862216407235055,0.07982180182782993,0.1425230385386116,0.05187640277102586,-0.2714022273959398,0.177849850281102,0.17760601411331323,0.07217540560069031,-0.37032056086137966,-0.42640396245818324,0.231039834383086,0.2172923177616137,0.5753994085050271,-0.23417568746093945,0.2952509943849078,-0.3347173250839872,-0.9040679902993282,0.07240590638750281,0.007199809580355064,0.43080241992239193,0.2886096269856038,-0.058890384668732254,0.2852785850137459,0.36901317294445296,-0.9089203647382392,-0.35984169566146923,0.33890626113670713,0.5271792122102087,0.3793126586340066,-0.022210022202507635,0.05869311615840574,-0.3950681997397947,-0.4680091776776304,0.1087956993122538,0.12019893419450906,-0.1335823958287885,-0.3953008233899163,0.0517738710147238,-0.1984376280475749,-0.4135723576356985,0.4086120656889467,-0.037549130424847636,0.02951342282236741,-0.07489284203603337,0.4511306205132454,-0.16105379859442756,1.4396571669329268,-0.6148526190468456,0.47815857545859064,0.014113545552269464,-0.5538746286491995,0.11099160352009,0.08754245969346908,-0.2710028914008113,-1.1246469103716132,-0.6518883300663484,-0.7721878666422873,0.017814047641838106,-0.5948277488401996,0.28098232725875094,0.42474912380736607,0.3312240823993009,-0.2944664676243602,-0.4337209569301527,0.16171689736823852,-0.7977779378481621,-0.22242790108247537,-0.1931091984043392,-0.3692485205661122,-0.3711568575782601,-0.17533382670437847,-0.14512238558611792,0.570958564925914,-0.17212655865096102,0.18801374367444015,0.07423252083474971,-0.7354019185048041,0.05903907852592695,0.21236978161556663,-0.314543647828206,-0.12584992872719053,0.01981458670583313,-0.23799562693552473,-0.18890663320216358,-1.0829220171070342,-0.7332831621586762,0.2671641404046544,0.007847455857457311,-0.4255434428104665,-0.10014098948502272,0.39639348439823774,0.3302483758010032,-0.3150472277150846,-0.8300381426741347,0.6612768431042834,0.21167393397554365,-0.8874711267628339,-0.5761372201496116,0.07474063381031262,0.5387406579914531,0.20335372211720304,-0.16517154850297647,0.3689899701095171,-0.16929889871382495,-0.19442441276155012,0.36169278062809374,-0.35371480634179353,-0.23191607249828902,-0.3795384632418652,-0.21875100950309978,-0.31827780884911594,0.6872757277323811,-1.5089193576775461,-1.3265419756313175,-0.48767437731982494,0.1125062513371909,-0.2583818024691328,-0.3495522690161261,0.29073499621736587,0.08720756018426586,0.3411067039158352,-0.18488269095260662,-0.3853553376626002,-0.08885215590100845,0.9066845132174138,-0.2112372486731921,-0.16676253577294567,-1.145921300955193,0.6753689311756708,0.15691631515279644,-0.4300803283022084,1.1054224358444618,0.1142184900590655,-0.33634557526775904,0.22130843749060555,0.31978532245837327,-0.031410457107079945,-0.38974789976844004,-0.04954604265940464,-0.24052709266491315,-1.2302382580253381,-0.5145034557067452,-0.1469964569207214,-0.38855207017488613,-0.3681752666485779,-0.07294689128422086,-0.17622126429771842,-0.17128588523153068,0.1710877279962028,0.35907168592291755,0.48942918232856164,0.043873251663846057,0.4804366305866197,-0.14351531410747648,-0.14624271717937293,0.9349978223121299,-0.29684776078895136,0.32421682649336475,0.684633892874497,0.4912821109815934,0.0018011231496839987,0.17886866550053693,-0.14584471405853097,-0.4645298176878089,-0.3228611582120743,-0.022139533641297112,-0.14955580506635752,-0.6312836007858308,-1.3187352915000219,-0.05284132043439092,-0.12398574365562313,0.44510962186917225,-0.14287797054313411,-0.04992340809518498,0.011617369269373077,0.40837925574781964,0.6489568868914397,0.6850483762068257,0.27386535637503634,0.6545941969213674,0.7614653025122645,0.33751449419100465,0.10621337531947495,-0.006883103662017003,-0.022090429144166476,-1.0560303587095696,-0.16833272605197078,-0.6691536682078513,-0.04531932473151326,0.4195371866539821,-0.37314552875676277,0.4374949291533534,-0.3393532264165801,-0.05089861976989712,-0.3770489672677746,0.7705777638013888,-0.6884267630987333,-0.8757607483826061,-0.40955796657506466,-0.08527016728132095,-0.27251593405408037,-0.307742884772816,0.3368707844972845,-0.07414285978867602,0.23913018252870263,0.5851214609486594,-0.44843364462393936,-0.4109190653828747,-0.5017495931143032,-0.986334105135546,-1.1098705531550446,-0.0030200823545673103,-0.477729136805468,-0.3027538792061012,-0.1640949285110779,1.2741890324663132,0.37714393917639655,1.2399350706464962,1.7849271424699817,2.20096278629311,0.6497595758803497,0.6417226318708149,0.8163206380831075,1.0958453489436706,0.12097815777639669,-0.4611311321107563,-0.06112370255900083,-0.3509292111937129,-0.34909461438854605,0.1678950254652134,-0.5210119138080137,-0.377247373136562,-0.6317182952287177,0.4739107998739717,-0.42819272182921514,-0.2749551792944134,0.1689477755256281,-0.5603318596854484,-0.8592175551276385,-0.43245186321628276,-0.7458100441335374,-0.21547464052866608,0.8672362533887654,-0.22131568906816151,0.23343560938097116,-0.0051929172773110275,-0.32995732272842243,0.6845914745118077,1.4912060889367056,1.6939588977528617,0.7154309606704683,0.5381130720112303,-0.1461106404504742,-0.08395236543799997,-0.07894144291580632,-0.15534199887473935,0.32513602375582723,-0.18436194209775764,0.04596989807189717,0.1764626889689892,-0.7480660902490468,-0.5917052281287933,-1.0460918723789685,-0.40679277145511394,-0.9481400543751622,-0.13081264086351474,-0.10961588126755814,0.9874263528666891,0.28940032997461024,0.022831598270831154,-0.0526980441046096,-0.29430558044159716,0.32546151963733516,0.39716186080119237,-0.4594979724358491,0.26240838024452817,-0.16555661369160588,1.779356592498176,1.324901326914885,-0.11468037952812608,0.7789406403509799,-0.3137070622007922,0.016611853486555007,0.04174227493748832,0.3202216415122248,-0.42695474062045774,-0.5062274702307485,-0.7237587617391309,-0.953040109402391,-0.10120138144269858,-0.3547552373055126,-0.1463404515203329,-0.02634828908804511,0.4541674734928534,0.22532109950288445,0.18251039831378268,-0.28672530881812996,-0.2244006669293107,-0.16865350549871547,1.121241610053364,0.4986331974771867,0.32649259236140915,0.02570544667881027,0.09778794007556706,0.3104563893091193,-0.08179334896502324,-0.09298883096769682,-0.7641204821457613,0.5094346790590878,0.4727491654800277,0.2511146013775593,0.5720774916430481,-0.43626125473109345,-0.2091224487168744,-0.06146187060960893,0.3972872182805393,-0.5992081558643494,0.03543044838699446,-0.08264434745775147,0.29063746218423064,-0.12434635603651657,0.5604348610260411,-0.263321947011759,0.05728117657672653,-0.17853488261130157,0.6923319534560868,-0.20623982667384347,0.08417270605934615,-0.43961760845900305,0.44885485784237356,0.1623967134178096,0.6862737923077353,-0.47075081961368603,0.3222509461510509,-0.48014704958781423,0.47854755272100025,-0.20493859871321393,0.9071339885078831,0.32298841414566376,-0.45178495004088565,0.11476260576653816,0.0040144633024271235,0.3321429753846681,0.06993279440160577,-0.3561367877678596,-0.10050963075992446,0.56434007491941,-0.36030748010036867,-0.15049762097676675,0.47959201395145434,-0.4490295997799474,-0.050871280005402926,0.11715152977193748,0.2195075626998799,0.567154259226885,0.39946770909965457,0.21894952569999637,0.31880849673503475,-0.5995294308271015,-0.22782363198730265,-0.5942137927684971,0.7000258228906521,-0.8539350408935026,-0.05983464594104665,-0.3093870423525675,0.9119468711304324,0.09699422756215871,-0.41705744839395165,-0.2409683107925314,-0.0782656072467165,-0.28566684973108936,0.4750277543708957,0.5209245148380682,-0.0964279066786393,0.38622011224677766,0.5133415228180429,0.8638270080698892,0.9659634460455497,0.5789290258084127,0.08784989396503519,0.49942394996883355,0.6618914025097119,0.1110291877194932,-0.1448627008282546,-0.10345841668882821,0.3187327999598457,0.3831974354984302,0.5363809692154552,-1.0120983201562497,0.1840986539295172,-0.9871454520399837,-0.4256291888609494,-0.18644519447762484,0.3031780681913113,0.6389294880657552,0.20764160876835722,-0.44738401691769825,0.3670738129785084,-0.38207127968798926,-0.20888337485305009,0.8179784417783085,0.4284163315244869,0.2619859311130413,-0.9139894000834813,0.6521003502429853,-0.17187636004132387,0.8842210959890268,-0.14500410287772775,-0.39938570452695116,0.29677632357648603,0.1659548277440794,0.6664700027490077,-0.15615050924873572,0.30819578282867516,-0.8155261937966582,-0.2727144058645801,0.10194502690498984,-0.39910839240848567,0.2047580437300596,-0.4316076586990964,-0.45580005012412295,0.23297624305284348,0.5827120560788732,-0.3608599848490089,-0.1712806918105433,0.3731439261455371,0.402028591288536,-0.5299393001467576,0.19140007732103456,0.30918141647232505,-0.3820933714850157,-0.5954559601570909,0.9754871933083435,0.4119217592085869,0.297755805659769,0.7576214189549796,0.6371959808129835,0.30172046320892715,0.33678063004668807,0.2061996581564618,-0.040528467553999616,-0.16730457589089778,0.3629342800020006,-0.6660098416332115,0.6055011135645114,-0.657173079713344,-0.09614370287450698,0.6706037443325347,0.28051310817260394,-0.09572224842719844,0.23406709079757104,-0.2109119172742613,0.1693059638246556,-0.3699130534868956,0.47190666710980184,-1.0701931621808358,-0.7513849613708168,-0.17900281518322922,-0.4932196151387999,0.18896965191070098,-0.6299086403418309,0.758407230506217,0.13704649927369378,0.20070114440056983,0.6435005530129204,0.6298756544651,-0.2331884083928453,0.32782791000163164,-0.3626659203279062,0.29561286283625915,0.7151488559271397,-0.5465869295066061,-0.22053699686457284,0.4297039391165015,-0.16109201640822568,-0.027192005086975165,-0.867077135804991,0.22450193539774857,0.06253770562962681,0.045055958554776836,0.21831707606089124,-0.3206490054492653,-0.3385584586763074,-0.5614257716244959,-0.35103949650532473,-0.6825541563910363,-0.5760111522147021,-0.09184109504239799,-0.5973549757825658,-0.33381409387122113,-0.5699067689228112,-0.02136778778129106,0.3483313674506748,-0.22572563700555293,-0.12359451850560448,0.2167437702418862,-0.1227660657586195,0.17852962090517835,-0.12158296389712898,0.031662763893762866,-0.3804320489523322,0.6274634079572735,0.35552883914679045,-0.8999138788083251,-0.09410292050020039,-0.17311213213659246,0.10644152541078211,0.34039277168636856,-0.1316267412050131,-0.23870633297341318,0.08515961197222963,0.3608442483332137,0.022683582473867567,-0.3803245831911615,-0.07633732979420874,-0.7081592450148897,-0.6802046931840598,0.11531310754880392,0.2729138612301432,-0.367532657851598,-0.630585183160279,0.2916608566841921,-0.6145682102285965,-0.3527383539060583,-0.43472073650510723,-0.19453968889895296,-0.45625280025641435,0.8261830350352487,-0.38424276540062724,-0.3629572914354155,0.34977521901352127,-0.34848235779105113,-0.4794783865841829,0.27129607071775474,0.1477114009402095,-0.17850735006358,0.41188526648124957,-0.03280970978099439,-0.3891167612529747,-0.07859210223712491,0.4664439210595291,0.08352071574687822,0.7997949536763171,-0.04526666473223914,0.2772479242170387,-0.3064113116664681,-0.14994490847419958,-0.5957056711409385,-0.42355163356258746,-0.13013860681755934,-1.101571369288005,0.3604964156120748,0.20901988672908284,-0.07672028969838361,-0.22490659695816687,0.06766970417039803,-0.7750495593895762,-0.15511217889183135,0.08609011909323039,-0.4555757390731425,0.31278043910948744,0.08184042035717204,-0.01234488691582788,0.2879448359128272,-0.06756984335513777,-0.07803999396263381,-0.49685171809008877,-0.2171712819604924,0.5870046582312936,0.11531107887373179,-0.46785972031509876,0.4336465493580601,0.6856992932555337,-0.26489767174643497,-0.26379643424669286,0.5152364467642531,-0.05366914330847317,0.3193253704576922,0.13726759832549926,-0.02822748550732643,-0.44643915651699034,-0.200968806637065,0.4914469053560146,0.2744394929709371,-0.24716889451365032,0.46498730114727477,0.4079276604296228,0.15226444361409244,0.45140957235625173,0.3801332185101102,-0.2560755310155533,-0.3535050745606795,-0.3557074915573454,0.11874632322778259,0.04270679649865727,0.2966548968984928,0.1317577493011427,-0.187849742570977,-0.3529821104529498,-0.6894376612597014,-0.0712818398152226,-0.7301008721442758,-0.855294584388292,-0.07305199038785275,-0.756553890301314,-1.2778324791139377,-0.1031847382724832,-0.06084745322244648,-0.05739622889588022,-0.5489886668888602,-1.056402992615792,-0.4140718033743984,-0.2239925177702307,-0.08775044041546254,-0.002719784868324128,-0.043907255383126155,0.10077374404179147,-0.01639130322546919,-0.39700764322495075,0.25648467333811287,0.39411690331369975,0.35299428475721406,0.3788291623503543,-0.3748314648646521,0.14885762543581907,0.26883331880508904,0.34444950625120613,-0.29470164056175296,-0.2459748220315732,-0.10213274751538381,0.19097790625267877,0.16156859096869058,0.29662113893383496,-0.021891734179675514,-0.6519750409679564,-0.9275476399033769,-0.9894106835085592,-1.5246040097846003,-1.6896022296678281,-1.3540468593727315,0.09100973881477818,-0.2730122678690776,-0.32256791132209306,-0.03979447960224991,-0.23834981197913938,-0.47725654743075346,-0.09315657067418127,0.08198856505579058,-0.20290348055638663,-0.18584185949451726,0.18654186029829734,0.15632101454959899,0.08162747137774165,-0.2718699730182816,0.325567116783313,0.26969436761791415,0.5112859498815949,0.23886287339316628,-0.2493626878350509,-0.46330437685408205,0.0356526710921728,-0.7721992292191638,-0.7886875574189389,-0.1449683374472871,-0.20723971702774466,-0.39872538098662247,-0.6867667393611213,-0.6019737277209981,0.3406395421359591,-0.3550229829411489,0.22480475183339568,-0.20766211482439859,0.2422212792705754,0.4489117062861855,-0.1117422061325409,-0.4687153611153807,-0.40685331848249284,0.2468502153945188,-0.4864262009838728,0.05791266565413524,-0.20415162656797156,-0.06337685854956536,0.4365053105221397,-0.03674958268262973,0.250569613759536,0.4793609015615191,-0.11014520371386875,0.13056619723607146,-0.025396310223839435,-0.5184926078871592,-0.47799579914569335,-0.26325985820496,0.5715723210366549,0.4477821422806292,-0.2651836455320349,-0.40533870002336564,-0.4652983260010397,0.0811345950936649,0.1107815004498559,-0.007127402553869476,-0.18383150649182456,-0.010602330847126473,0.26027612844267345,0.29815700762584985~,0.01653931748842695,0.5288653597802365,0.14124956447749845,0.17826606496396954,-0.02902888602462056,0.27618268313002353,-0.21387339944615338,-0.305696443422433,-0.39911442286894067,0.5091872767601485,-0.21037817750966806,-0.35230143316224244,0.4743333011565395,0.3987122617520684,-0.14005267625671566,0.27062593756048636,-0.4137666891911869,0.004532497014407194,-0.013431533927450511,0.2429766078399976,-0.20239781860043374,0.41717931244401124,0.44259814228784083,-0.2788791576915762,-0.31340423891120334,-0.2303589378345466,-0.287739922639289,-0.060432677431438306,-0.31962463680088,-0.2629023006677635,0.3312023250218315,0.39669453541575644,0.0417587912417565,0.010673473369630041,0.41986889046199755,-0.31385604768986886,0.519108874186574,0.061124641371469036,-0.10627609549694135,0.40272250602072945,0.14121630537707439,-0.03518132540740302,-0.2982259154640601,-0.489938311708983,0.3353665805112444,0.17382453738473952,-0.448771011879921,-0.2942314152023907,0.1345594330896581,0.18986819222755888,-0.3312610580764849,-0.45843090389893154,-0.02389880629255274,0.4722002055184615,-0.01991655727248353,0.28008910110937474,-0.29862418140926766,-0.43632742184412915,0.00852246597131399,-0.20283022254904604,0.30938883565502795,-0.12647926880127167,0.3085447787437908,0.3010896054227302,0.05450062306157535,0.1423072167388805,0.3714796453577029,0.36205456815182174,0.10549260286809448,-0.08498067528061842,-0.2405035822724434,-0.4559069720742709,0.18729723580051405,0.3641600596305861,0.10355449771750588,0.1260103542261301,-0.5758620334351312,-0.07986279102560989,0.03803133828023387,0.4994022881935167,0.3622332394723826,-0.43315580144737514,-0.3867826855673219,0.04169611499340982,0.4419357025071671,0.1507265497655961,0.4387666134622072,-0.17621694583435554,-0.19544050937660862,0.12127127556722124,-0.3046167193677244,0.04295163937095556,0.4068258561277646,0.03417051135370435,-0.23621035778667474,0.7226528604810109,-0.22958358876521143,-0.6256957040950836,-1.1721102580378688,-0.3496673426404926,-0.10386638049135702,-0.8002729153998334,-0.6991823744739355,-0.5824427946024558,0.191346386565048,-0.0065456245377290756,-0.005223081881549597,0.46174745317394716,0.48614273669335994,-0.10245846121329473,0.31029478093128887,-0.18363711175460554,0.4372889414517312,0.3085962924276879,-0.04972349394966991,-0.037448082995687464,0.5074741370008613,0.08077777616351202,0.45049134850252326,-0.31483905507372545,-0.34624507453606446,0.07415043004964414,-0.2795821633198789,0.2914735201343526,0.2260744547810404,0.05940693930700316,-0.5687399599234949,-0.41631912440968577,0.3481080482116153,-0.5872069492535036,-0.039353585620261484,0.2850936819612638,0.12137891324971481,-0.026440818591826995,0.27431930821949724,0.06290714960801677,0.015928883682715868,-0.10712469161162542,0.24896944494273177,-0.17347627404582516,0.41934014724572205,-0.3021234785437255,0.4972828945844175,0.5104063824661342,-0.35561091738306416,0.4701189677496386,0.04716587610002017,-0.3890611598270914,0.4453203602392471,0.011137651840011198,0.2670574689904999,0.25947966934093786,0.6789133259650876,1.2325128383549957,-0.16847454302428078,-0.46174284101353197,0.21362348944075538,-0.1576901124691456,0.02779666725589455,0.20504737453095276,-0.30508176506545925,-0.050734957777744775,-0.19420340922724794,0.021224837185536784,0.35444464173688706,0.1672477570496853,-0.2123481982478517,-0.3181428616329968,0.3053880469381151,-0.28581424513153525,0.0321529233523397,0.00788573398532004,0.30752604630163555,0.03158008155315715,0.25743991395908494,-0.1448637579553321,-0.6715062864330174,-0.08270799504555625,0.9793465581740589,-0.8316547663150974,0.14968842309033487,0.422439925641379,0.11340351513846007,-0.04168834733529351,0.3386086149418012,-0.06898267485129937,-0.41031203053648563,0.04383552023788005,-0.13945166956434185,-0.24400499592412248,0.324261628846545,0.04443021870418524,-0.1906481025400997,-0.2901310540255459,-0.09379692639323871,0.20454916906120477,-0.09197668947078111,0.18457796052720113,-0.25739974949751987,0.4983879624026656,0.6558708473034147,0.14841428912929142,-0.02583556477203179,0.5080727352310314,-0.09403064925552075,-0.12485971204945946,0.0736385111376516,-0.04034427055509599,0.4238791900664024,0.21103322619731865,0.46954333953300703,-0.8573602747147823,0.39170550052628217,-0.05671170631848406,-0.129580151916328,0.338250213450601,0.07782449188585049,0.04744981222805029,-0.9844765313577313,-0.3908334998911254,0.33231667140203597,0.15674026685348297,-0.4092065453015354,-0.10673773329731102,0.19392221897997639,-0.22776809603778964,0.136919804916242,-0.5610967637443302,-0.17424691609591714,-0.6132660222104085,0.17750379208857772,0.5708387390263715,0.29592046994071564,-0.13565484387705148,0.5887791346747799,-0.06141980081703819,-0.18534319797900267,0.4438107211366658,1.0215664697065514,-0.0710283540870273,-0.18633435444248572,-0.4162168103064013,0.4427667179681604,-0.4298851989556846,0.17204671002906702,-0.021345493557677755,0.3440850402932404,-0.2752805191684755,-0.37829157630293503,0.012197255326151363,0.1467320647515034,-0.19565234195582568,0.1735488583796853,0.008862307227495606,-0.0710535348589552,-0.39891835234299544,0.12194267927647237,0.6641322280741326,-0.5942116486850074,-0.4973266970714038,-0.407226504495418,0.44265112752817015,0.028416279794703,-0.3343111778620557,1.122577282170869,0.18986652551097477,-0.007390870209773529,0.13242408654393145,0.48711158895834217,-0.03962615856695573,1.0353979568943978,-0.37337733385708377,0.13986966796772934,-0.08068648380652721,-0.08836999408016324,0.32571907047806953,-0.5754336537346041,-0.31027511011977593,-0.30994105284643747,-0.32283677468021826,-0.23770192376025517,0.410835771207799,0.02316879749984394,